#ifndef AE_WEIGHTS_H
#define AE_WEIGHTS_H

// Auto-generated AE weights

static const float ae_enc_conv1_w[672] = {
  -0.23056063f, -0.43034855f, -0.33534300f, -2.64406204f, -2.92202783f, -0.72911543f,
  -0.66347587f, 0.00459018f, 0.00123849f, 0.00193329f, 0.00261430f, 0.00691167f,
  0.00393207f, 0.00925336f, -0.00099802f, -0.00134244f, 0.00503405f, 0.00668758f,
  0.00379208f, 0.00263842f, -0.00253217f, 0.52446288f, 0.55702841f, 0.49918875f,
  13.32424068f, 12.27592182f, 0.78012311f, 0.68308103f, 0.01683036f, -0.01102402f,
  -0.01887333f, 0.00090275f, -0.00151202f, 0.00152574f, 0.00518678f, -0.02006217f,
  0.02319898f, -0.02166139f, -0.02172864f, 0.03481952f, 0.02115320f, -0.03167582f,
  -0.49396956f, -0.62460542f, -0.56505841f, 0.87313849f, 0.01054536f, -0.08121410f,
  0.01235619f, -0.18671726f, -0.22391760f, -0.19387929f, -0.19851328f, -0.19194275f,
  -0.18241616f, -0.17030978f, -0.01140542f, -0.01399643f, 0.00701095f, -0.03167887f,
  -0.01672993f, 0.00675758f, 0.00062453f, -0.52476686f, -0.49664614f, -0.53638154f,
  1.33075321f, 0.87990141f, 0.03029596f, -0.02838989f, 0.21324186f, 0.06184648f,
  -0.12423368f, 0.01471822f, 0.16709401f, -0.07802727f, 0.09866432f, -0.04864247f,
  0.07122699f, 0.00863742f, -0.04267848f, -0.02393615f, -0.02497274f, -0.02270263f,
  -0.37523016f, 0.33798388f, 0.38294640f, 1.50100768f, 1.80306423f, -0.69293988f,
  -0.68198186f, 0.09519419f, 0.18337925f, 0.15826997f, 0.11153641f, 0.11622898f,
  0.14755122f, 0.07728718f, -0.01397991f, -0.01787578f, -0.00138743f, -0.02069023f,
  0.01319051f, 0.02517897f, 0.01407115f, -0.38084790f, 0.17497456f, 0.03915573f,
  -2.56953263f, -2.00685525f, -0.71975404f, -0.82361835f, -0.26444858f, -0.07387611f,
  -0.02799608f, -0.04150268f, -0.00376150f, -0.15256937f, -0.40461999f, 0.11530919f,
  0.00304482f, -0.09608072f, 0.01705117f, 0.01216509f, -0.11089692f, 0.09151540f,
  0.16066860f, -0.13724571f, -0.37213036f, 1.38155937f, 0.89534730f, 0.60717809f,
  0.67923605f, 0.00025572f, 0.02288665f, 0.03508022f, -0.03265372f, -0.02789194f,
  0.03395954f, 0.02516553f, -0.11512933f, -0.12168016f, -0.11809386f, -0.31111449f,
  -0.21786860f, -0.36376011f, -0.38310906f, 0.15617731f, -0.38744003f, -0.29397625f,
  1.94063747f, 1.87420893f, 0.77370936f, 0.72209781f, -0.02375532f, -0.06785652f,
  0.07321462f, -0.04965644f, -0.08771284f, 0.01796757f, 0.06525750f, -0.45503953f,
  -0.35712424f, 0.00588657f, -0.47041610f, -0.19777223f, 0.29810277f, 0.40124270f,
  0.60914242f, 0.41352642f, 0.37139577f, -1.99776793f, -1.09141779f, 0.55503982f,
  0.73621458f, -0.22078514f, -0.28894168f, -0.15714256f, -0.17368419f, -0.15470843f,
  -0.09473497f, -0.10072520f, 0.01167156f, 0.02458477f, 0.06932708f, 0.04736899f,
  -0.02886678f, -0.00001650f, -0.00096912f, 0.65632433f, 0.58718568f, 0.53321242f,
  -2.52051640f, -2.53958964f, 0.52923316f, 0.61909157f, -0.89594001f, -0.24167985f,
  -0.23442894f, -0.15966980f, -0.11158333f, 0.15104605f, -0.31172547f, 0.18222614f,
  0.23820013f, -0.16861589f, -0.11035892f, 0.09266497f, 0.15766971f, 0.25838894f,
  0.66424602f, 0.40981412f, 0.56810516f, -1.50708139f, -0.94952017f, -0.01114857f,
  0.26982391f, -0.00934267f, -0.01498515f, -0.01137740f, 0.02364129f, 0.00731570f,
  0.00853107f, 0.01363448f, 0.23357947f, 0.30082384f, 0.18454690f, 0.20533405f,
  0.16399871f, 0.18425342f, 0.11414064f, 0.55024046f, 0.13869247f, 0.08286332f,
  -7.97698021f, -7.15981007f, -0.14931303f, -0.14320196f, 0.01435598f, -0.15089993f,
  -0.05520119f, 0.08079994f, 0.03480683f, 0.02480002f, 0.10592503f, 0.54480731f,
  0.31816998f, -0.06112522f, -0.10634138f, -0.04178832f, -0.31262210f, -0.50588411f,
  -0.37395555f, 0.02932804f, -0.14182636f, 2.33089566f, 2.56917477f, -0.66464567f,
  -0.47787154f, -0.26229212f, -0.32328853f, -0.16725022f, -0.12212803f, -0.13299084f,
  -0.19227622f, -0.11782953f, 0.00021116f, 0.00748861f, -0.00911458f, 0.02503712f,
  -0.00309639f, -0.01213746f, 0.00229344f, -0.28902176f, -0.00353856f, -0.20548147f,
  4.00770187f, 3.56138039f, -0.64089489f, -0.50125736f, 0.38035202f, 0.09312257f,
  0.06823573f, -0.03909028f, -0.10487130f, -0.35722679f, -0.48165935f, -0.06177589f,
  0.23361400f, 0.07314083f, -0.05683880f, -0.03890394f, -0.10932624f, 0.01710819f,
  0.25467402f, -0.13880868f, -0.26573068f, -0.20720895f, -0.43724740f, 0.81048489f,
  0.66531092f, 0.34039599f, 0.42966732f, 0.38540736f, 0.40154606f, 0.35990912f,
  0.46271801f, 0.41819817f, 0.00061032f, 0.00225584f, 0.04983922f, 0.02901002f,
  0.00089516f, 0.00564075f, 0.02141584f, 0.12140265f, -0.23809025f, -0.19320571f,
  0.69360375f, 0.85952061f, 0.79380643f, 0.81318319f, 0.30866718f, -0.03650186f,
  0.03291646f, 0.00891747f, 0.00038401f, -0.11738267f, 0.55264175f, 0.08379129f,
  -0.01911896f, -0.22531465f, 0.10065760f, -0.07349473f, -0.00015114f, 0.15721773f,
  0.04064062f, 0.13901290f, 0.09512369f, -0.89498508f, -0.70277017f, 0.74337476f,
  0.91288632f, -0.02183607f, -0.06386357f, -0.01243676f, 0.00001731f, -0.03894729f,
  -0.09070481f, -0.07025417f, 0.00758398f, -0.01468520f, -0.01597290f, 0.02099430f,
  0.02868397f, 0.07876690f, 0.05410130f, -0.18108511f, -0.05276245f, 0.13787650f,
  -2.50078225f, -2.36127806f, 0.75754851f, 0.69764125f, 0.11562370f, 0.15729526f,
  0.02293693f, 0.25661319f, 0.04069200f, 0.66942590f, 0.95215684f, -0.10383104f,
  -0.07891113f, -0.28868613f, -0.15076134f, 0.05586455f, 0.43703270f, 0.72684747f,
  0.10794427f, 0.01822908f, 0.13965885f, 1.46439362f, 1.61649740f, -0.13808888f,
  -0.13929872f, -0.00375892f, -0.00440570f, -0.00548186f, 0.02430675f, -0.00231584f,
  -0.00011696f, -0.00878228f, -0.39253455f, -0.40040013f, -0.28556842f, -0.30571020f,
  -0.26045194f, -0.30976185f, -0.32901719f, 0.14860950f, 0.06151499f, 0.20132618f,
  2.99007773f, 2.97306085f, 0.13767192f, 0.17911966f, 0.05674534f, 0.01797547f,
  -0.20299305f, 0.03555541f, -0.07811841f, 0.16650306f, 0.03528309f, 0.94504422f,
  0.15769474f, -0.20402291f, -0.05868086f, -0.00096830f, -0.43568900f, 0.40970924f,
  0.17477399f, -0.30986458f, -0.23926488f, 1.84806907f, 1.85507107f, 0.62364036f,
  0.79634327f, -0.02061662f, -0.06280570f, -0.05968901f, -0.04500740f, 0.00606535f,
  0.13406765f, 0.08487546f, -0.06362295f, -0.11039124f, -0.02701298f, 0.00088208f,
  0.02864640f, 0.13986053f, 0.07641532f, -0.01701516f, -0.23129319f, -0.37161908f,
  3.60434866f, 3.26808357f, 0.68309093f, 0.88065034f, -0.48959050f, -0.40330240f,
  0.02101062f, 0.17841464f, -0.19632064f, 0.39594620f, 0.58844203f, -0.56788534f,
  -0.40329003f, 0.19757180f, -0.19797671f, -0.21659550f, -0.24866973f, -0.59727871f,
  -0.06856777f, -0.56416923f, -0.37287405f, -0.01705834f, 0.20038712f, 0.79981863f,
  0.84659427f, -0.01745115f, 0.05876176f, 0.03819872f, 0.09902734f, 0.17725615f,
  0.33357531f, 0.21056315f, 0.09649026f, 0.15373057f, 0.02773967f, 0.05361519f,
  0.04385674f, -0.05062301f, -0.00404518f, -0.07602184f, -0.36172161f, -0.55407107f,
  0.96016592f, 1.47352278f, 0.82784575f, 0.90963042f, -0.56910038f, -0.30757895f,
  -0.20680572f, -0.29541826f, 0.03329320f, 0.41845953f, 0.32311168f, 0.10922079f,
  -0.22647294f, -0.01481056f, 0.21394500f, -0.15779430f, 0.02580798f, 0.34505180f,
  -0.13805993f, -0.60368359f, -0.34914184f, -4.78335762f, -4.71941757f, -0.32260004f,
  -0.35405758f, -0.00936577f, -0.01657412f, -0.00684715f, 0.01141035f, 0.01937088f,
  0.00986991f, 0.00825104f, 0.00599512f, -0.01862098f, 0.00276893f, 0.01429575f,
  -0.00968788f, -0.02037405f, -0.02290843f, -0.07563543f, -0.58335674f, -0.59655744f,
  -10.27397251f, -10.34522057f, -0.60366327f, -0.61110669f, 0.03465586f, 0.00908240f,
  -0.02924991f, 0.01385540f, -0.00432649f, -0.01753495f, 0.03142978f, -0.11992836f,
  -0.01881932f, 0.00208573f, -0.05952602f, 0.10184557f, 0.06720790f, -0.04806056f,
  -0.14590113f, -0.22093843f, -0.17867962f, 0.20224111f, 0.06258350f, -0.31171224f,
  -0.23574854f, 0.00097420f, -0.08950665f, -0.15040360f, -0.20404325f, -0.22249046f,
  -0.64728981f, -0.45473620f, -0.04920333f, -0.05609230f, 0.00361218f, -0.01053277f,
  0.00637461f, 0.02159555f, 0.00537072f, -0.23294571f, -0.19594677f, -0.15944718f,
  -0.87827379f, -0.93928885f, -0.20343304f, -0.40858921f, -0.72488952f, -0.37297171f,
  0.15488526f, 0.00826026f, -0.03076495f, -0.09519272f, -0.01914527f, 0.00875253f,
  -0.15206748f, -0.08671825f, -0.11065351f, 0.12905343f, -0.20264326f, -0.36481678f,
  -0.57846421f, -0.52400923f, -0.51719671f, 1.00959730f, 0.86248636f, 0.57063371f,
  0.38009205f, 0.13802126f, 0.18027508f, 0.11358146f, 0.07555103f, 0.08288061f,
  0.02985454f, 0.07602074f, -0.00690902f, 0.01016666f, -0.04288951f, -0.01618775f,
  0.02362966f, -0.04290190f, -0.00422835f, -0.49973515f, -0.44637525f, -0.33265674f,
  3.48451447f, 3.46067190f, 0.63042957f, 0.57254559f, 0.71084070f, 0.34692428f,
  -0.01549006f, 0.16967164f, 0.25408480f, -0.38622043f, 0.17215334f, -0.16602916f,
  -0.09679054f, 0.20994243f, 0.01764761f, 0.05829113f, -0.14765438f, -0.18458113f,
  -0.21170603f, -0.72975886f, -0.46143335f, 2.35616374f, 2.29250956f, 0.45185775f,
  0.40149888f, -0.00007846f, 0.01491528f, -0.02241602f, -0.00854109f, -0.02124855f,
  -0.02313149f, 0.00549239f, 0.22872090f, 0.27849537f, 0.22156180f, 0.21250403f,
  0.22840071f, 0.44290343f, 0.32995296f, -0.34629491f, -0.68697965f, -0.59866327f,
  2.42652822f, 2.44775772f, 0.29292122f, 0.36870706f, 0.08680826f, -0.07163665f,
  0.09242687f, 0.09978314f, 0.11582495f, -0.08649760f, -0.28551462f, -0.14028585f,
  -0.33503732f, 0.19334401f, 0.00390956f, -0.12230899f, 0.28206551f, 0.46836090f
};

static const float ae_enc_conv1_b[16] = {
  0.06948880f, -0.12552229f, 0.12061745f, -0.05243161f, 0.06112003f, 0.03766977f,
  0.11606837f, -0.06159316f, -0.13177885f, 0.03977343f, -0.13936935f, -0.14510038f,
  -0.16564724f, -0.03941480f, 0.03477969f, 0.07510161f
};

static const float ae_enc_bn1_w[16] = {
  1.53945339f, 1.09876728f, 1.16965890f, 0.80930144f, 0.64600086f, 0.87659740f,
  0.81551862f, 0.97677809f, 0.69746077f, 0.90105134f, 0.72311509f, 0.66806740f,
  1.47216904f, 0.52931672f, 0.72201473f, 0.95076925f
};

static const float ae_enc_bn1_b[16] = {
  0.54011196f, -0.06386289f, 0.30175039f, 0.01344446f, -0.00794229f, 0.33191979f,
  -0.26354817f, 0.38207051f, 0.97027153f, -0.00044349f, 1.44322264f, 0.38988766f,
  0.74617070f, -0.01011875f, -0.00582738f, 0.35177749f
};

static const float ae_enc_bn1_rm[16] = {
  20.70153809f, -0.22195688f, -4.38175678f, 7.35179996f, -3.39720058f, -15.23914528f,
  8.97970200f, 4.15781021f, -1.54586053f, 10.26109123f, 11.15703773f, 3.72090030f,
  -34.44645691f, -5.18491602f, 8.77261734f, 8.30891418f
};

static const float ae_enc_bn1_rv[16] = {
  0.00490088f, 0.19273488f, 0.15677896f, 0.28578231f, 0.28792423f, 0.20866729f,
  0.19693439f, 0.54576123f, 0.34797716f, 0.32583708f, 0.23011099f, 0.32248375f,
  0.09698918f, 0.30889821f, 0.15588702f, 0.37214318f
};

static const float ae_enc_conv2_w[2560] = {
  -0.52377367f, -0.20562308f, 0.11359496f, 0.06727888f, 0.44005021f, -0.60949945f,
  -0.10959407f, -0.10464788f, -0.01138120f, 0.31417206f, 0.19870147f, 0.15697812f,
  -0.28983378f, 0.00931423f, 0.14585194f, -0.01248989f, -0.22244301f, -0.33299980f,
  0.10876285f, -0.13999894f, 0.14676258f, -0.01178633f, 0.07106991f, -0.12310284f,
  0.01936854f, 0.32947484f, 0.05524349f, 0.00638573f, 0.18599316f, -0.51152861f,
  -0.19864149f, 0.06536069f, 0.19309503f, 0.13683756f, 0.30083588f, 0.18903178f,
  -0.02465252f, -0.15946038f, 0.07028387f, -0.22390243f, 0.12421148f, 0.09045795f,
  0.23752953f, -0.08532333f, -0.04408894f, -0.27829182f, -0.19007732f, 0.18197669f,
  0.24170135f, -0.03849471f, 0.01245028f, -0.00616337f, -0.07868783f, 0.06790768f,
  -0.09302478f, 0.17436266f, 0.12452768f, 0.01224884f, -0.44626257f, -0.18593492f,
  0.42081019f, 0.05294038f, -0.51330858f, 0.00231864f, -0.50508094f, -0.15642044f,
  -0.16799323f, -0.10504495f, 0.20821062f, 0.45740187f, -0.11761779f, -0.35895249f,
  -0.62099707f, 0.25928533f, -0.08390965f, -0.25242960f, -0.06981865f, 0.02080724f,
  0.14099866f, 0.17655049f, 0.05296665f, -0.11357456f, -0.02802474f, -0.21768202f,
  -0.13665502f, -0.04479629f, 0.00874712f, -0.15725823f, 0.05362102f, -0.11473870f,
  0.23674184f, 0.10367084f, 0.26500875f, 0.11333894f, 0.38416210f, 0.14558764f,
  0.29587957f, 0.11434028f, 0.21843337f, -0.13534607f, -0.12731521f, -0.01033111f,
  0.11733190f, -0.14409736f, -0.10604600f, -0.59896040f, -0.18618485f, 0.20123175f,
  0.10818856f, 0.31608233f, -0.14808682f, -0.06575614f, 0.00685532f, 0.10668132f,
  0.33098412f, 0.09817947f, 0.09572506f, 0.07764307f, 0.06785678f, -0.07686020f,
  0.01657569f, 0.12473015f, 0.10410545f, -0.21325172f, -0.25599951f, 0.23789461f,
  -0.14027832f, -0.06711023f, -0.15583010f, -0.22930193f, 0.20580345f, 0.10510042f,
  -0.23743390f, 0.02696786f, 0.41312054f, -0.62585843f, -0.22615933f, -0.18109842f,
  0.22415891f, -0.39683574f, -0.82001001f, -0.02082251f, -0.04246743f, -0.16157986f,
  0.35541871f, 0.19005118f, 0.00110434f, -0.02663410f, 0.35207325f, 0.18933460f,
  -0.02293924f, 0.06324236f, 0.08782185f, 0.08707896f, 0.17381124f, -0.54257756f,
  -0.10770632f, 0.04606432f, 0.00511150f, 0.00236730f, -0.21160509f, -0.09901722f,
  -0.01491803f, 0.25758529f, 0.18301815f, -0.16447981f, 0.10197179f, 0.01404988f,
  0.08373830f, 0.06614192f, -0.06882112f, 0.06739520f, 0.16769931f, 0.17598931f,
  -0.08448540f, -0.28059414f, 0.01057104f, 0.35293573f, 0.20871063f, 0.14862931f,
  -0.19031072f, -0.15900198f, -0.27700558f, 0.10978944f, 0.21388316f, -0.17617539f,
  0.02382254f, 0.03990778f, -0.05000136f, -0.14560042f, -0.12483883f, 0.09597903f,
  -0.04062917f, -0.11522520f, -0.22459632f, 0.10568798f, 0.07105821f, -0.14024472f,
  -0.03103477f, 0.02342785f, -0.26980862f, -0.10684597f, -0.06467034f, 0.12895645f,
  0.37905732f, 0.38787770f, 0.16310227f, 0.12231217f, -0.03402136f, -0.04049990f,
  0.04075346f, 0.13598950f, -0.02311034f, 0.12631199f, -0.51637143f, -0.26245952f,
  -0.01695633f, 0.18844804f, -0.02625499f, 0.34048820f, -0.59160054f, -0.70877570f,
  -0.38173878f, -0.57101846f, -0.64607865f, -0.07776054f, 0.02074072f, -0.08007131f,
  -0.21329261f, 0.07794936f, 0.25927529f, 0.13838838f, 0.21220464f, -0.06580117f,
  -0.14005588f, -0.05748951f, -0.11659546f, 0.04563947f, -0.08114421f, -0.26388651f,
  0.62170225f, 0.28537080f, -0.14450647f, -0.23846675f, -0.28636932f, 0.15205158f,
  -0.01674370f, 0.02747583f, -0.01824542f, -0.19955035f, -0.17547318f, 0.00362797f,
  0.05949571f, 0.06858478f, 0.04824916f, 0.32697499f, 0.04570748f, -0.18427670f,
  -0.15799884f, -0.89992750f, -0.05954259f, 0.09011973f, -0.05160476f, 0.04584483f,
  -0.02039305f, -0.44782761f, -0.01942430f, -0.00841142f, -0.19126935f, -0.14333437f,
  0.01653077f, -0.28398800f, -0.00080926f, -0.00590029f, 0.10449651f, -0.01282844f,
  0.00528597f, -0.09696373f, 0.08102406f, -0.11224675f, -0.10285894f, 0.02325805f,
  -0.15297419f, 0.24710488f, 0.30745164f, -0.08511341f, -0.08499004f, -0.16104469f,
  -0.56639838f, -1.18719792f, 0.16441429f, -0.41529885f, -0.26376674f, -0.19996791f,
  -0.12718582f, -0.05295099f, -0.01898230f, 0.12880605f, 0.08150815f, 0.35905275f,
  -0.24040210f, -0.16596214f, -0.05051133f, -0.19550753f, 0.42087585f, 0.04188178f,
  0.03345716f, -0.18623783f, -0.05206495f, 0.05260902f, 0.15144956f, -0.16069347f,
  -0.02223018f, -0.01117819f, 0.02662683f, -0.02634211f, -0.32903215f, -0.28184271f,
  0.38080135f, 0.77156073f, -0.42719513f, -0.24212155f, -0.07621105f, 0.24168737f,
  0.35629883f, -0.05643653f, 0.21422495f, 0.04282861f, 0.04148084f, 0.19319586f,
  0.01681100f, -0.02956875f, -0.00704477f, -0.10088466f, 0.11406536f, -0.20502289f,
  -0.03505522f, 0.08631304f, -0.07402628f, 0.36974967f, 0.05668407f, 0.03310582f,
  -0.22822380f, 0.09465190f, -0.31779623f, 0.35755408f, -0.07446053f, -0.19097029f,
  -0.05896353f, 0.02911055f, -0.08261190f, 0.05520470f, 0.01680946f, -0.29959700f,
  -0.02422849f, 0.13978907f, 0.01814868f, 0.01811206f, 0.10288836f, -0.10188320f,
  -0.03838800f, -0.05343819f, -0.04161504f, -0.13380645f, -0.51107275f, -1.35375929f,
  -0.12214319f, 0.02456403f, 0.19266319f, 0.55898750f, -0.28232175f, 0.23417616f,
  0.50444257f, 0.31294361f, 0.26709545f, 0.06176206f, -0.10789342f, -0.10339990f,
  -0.14845939f, -0.28028783f, 0.25349063f, -0.16259216f, 0.04387723f, -0.17727591f,
  0.08023015f, -0.06324785f, -0.06606219f, 0.01036651f, 0.12375154f, 0.03860721f,
  -0.11980236f, 0.12731162f, 0.07350465f, 0.02458118f, 0.12600911f, 0.28873238f,
  0.17580962f, 0.15692674f, -0.42055428f, -0.59342408f, 0.31256771f, -0.00404738f,
  0.01864299f, 0.16092974f, 0.00720043f, 0.16161843f, 0.21721821f, 0.02315184f,
  -0.14121503f, -0.36623600f, -0.29879689f, -0.02308414f, -0.10744102f, -0.36184675f,
  -0.12532948f, 0.13853265f, 0.15513562f, 0.00878552f, 0.30551371f, 0.02985679f,
  -0.19386400f, -0.21751902f, 0.01473139f, 0.37106499f, -0.13525391f, -0.46915501f,
  -0.13195705f, -0.06260755f, 0.11223398f, 0.33467621f, 0.33474672f, 0.46676126f,
  -0.17427021f, -0.38521245f, 0.14101678f, -0.04938236f, 0.09441978f, 0.14842561f,
  0.03717666f, 0.17362009f, 0.21685469f, -0.10335684f, 0.37742770f, 0.15254904f,
  0.01921976f, 0.17633091f, 0.04005579f, 0.17811123f, 0.22318639f, -0.07177189f,
  0.12865855f, 0.10755157f, 0.12704191f, 0.39485416f, 0.32536021f, -0.29512435f,
  -0.32298994f, 0.14649566f, 0.44210476f, 0.23866428f, -0.73457617f, 0.15497221f,
  0.09869043f, -0.30453584f, 0.37002537f, 0.06366892f, -0.12040848f, -0.15660566f,
  -0.59125733f, -0.29853955f, 0.21838398f, -0.11698303f, 0.05277035f, 0.09015138f,
  0.23066811f, 0.03841701f, 0.29972261f, 0.02300054f, -0.17814271f, -0.01905450f,
  -0.28762728f, -0.16793883f, -0.06020180f, 0.21796329f, 0.11504605f, 0.43764913f,
  0.02375056f, -0.22429338f, 0.00624168f, 0.03719613f, -0.47811058f, -0.28356695f,
  -0.03591838f, -0.37281770f, 0.03595824f, 0.02314985f, -0.01825195f, -0.02779515f,
  0.07258567f, -0.01778369f, -0.94713175f, -0.43734679f, -0.03148748f, 0.25358301f,
  0.07797019f, -0.01252418f, 0.09757710f, -0.04370217f, -0.11099793f, -0.06111870f,
  0.34686351f, -0.04084783f, -0.30723730f, -0.25358444f, -0.03812228f, -0.91096574f,
  -0.44845489f, -0.07601610f, -0.16241530f, -0.70376784f, -0.08973708f, -0.03055549f,
  -0.10048924f, -0.04743504f, -0.16825083f, 0.01267707f, -0.13189811f, -0.07368468f,
  0.05537258f, 0.04208395f, -0.39977723f, 0.07793518f, 0.10725388f, 0.10308418f,
  -0.03981037f, -0.17630297f, 0.24156234f, -0.13994920f, 0.05064410f, -0.21635211f,
  -0.12355392f, 0.29350734f, -0.04863494f, -0.23687908f, 0.05400962f, -0.76077712f,
  -0.01957420f, 0.16056021f, -0.09244658f, -0.26401392f, -0.11789938f, 0.16375098f,
  0.16287290f, 0.04815452f, 0.04381936f, 0.06255575f, 0.15813878f, 0.07313053f,
  0.04834227f, 0.20405279f, 0.45557877f, 0.14681678f, -0.06657057f, -0.12744334f,
  -0.08146908f, 0.01412578f, -0.12847190f, 0.09731652f, -0.14340550f, -0.27251083f,
  -0.27859998f, -0.26246855f, -0.17210652f, 0.33364275f, 0.04162527f, -0.20129322f,
  -0.01083841f, 0.22428767f, 0.11055546f, 0.15004149f, 0.20415346f, 0.04136381f,
  0.04400148f, -0.02803869f, -0.10197858f, -0.24594359f, -0.16173896f, 0.04113831f,
  0.21511257f, 0.05895533f, 0.23853411f, 0.13083668f, 0.10473780f, 0.32668635f,
  0.03980136f, -0.39104480f, -0.28825691f, -0.09668717f, -0.49456069f, -0.48291683f,
  0.06376768f, 0.21568283f, -0.14710237f, -0.44466782f, -0.31844276f, 0.14935771f,
  0.02952253f, 0.03975282f, 0.06949884f, 0.00590800f, 0.55032492f, 0.27391481f,
  0.10143679f, 0.10280562f, -0.11411680f, 0.29123440f, 0.15770645f, -0.09566441f,
  -0.38950834f, -0.12869690f, -0.11254663f, -0.22407833f, -0.03133739f, 0.24727182f,
  -0.18652205f, -0.04301614f, 0.00236676f, 0.26519531f, 0.43269959f, 0.14564180f,
  -0.12665439f, 0.10872029f, 0.21425258f, -0.01893645f, 0.01113703f, 0.04701098f,
  0.14856043f, -0.01319952f, -0.09291689f, 0.00836185f, -0.13272160f, -0.28874826f,
  -0.30351934f, -0.75624847f, -0.77158439f, -0.19374855f, -0.24147952f, -0.11439533f,
  -0.11403781f, 0.04349983f, 0.03933928f, -0.09932272f, -0.21016665f, 0.65829259f,
  0.13069643f, 0.08404353f, -0.07594233f, -0.11031206f, -0.06731038f, 0.04828228f,
  -0.06939836f, 0.06915379f, 0.32863429f, -0.24938698f, -0.01355183f, 0.00878336f,
  0.02919406f, -0.13169140f, 0.08913615f, 0.03398125f, -0.07500944f, -0.16059633f,
  0.00187206f, 0.48791426f, -0.00695251f, 0.12156529f, 0.04876633f, 0.02484747f,
  -0.17161402f, 0.02750800f, 0.02154789f, 0.01739137f, 0.07384766f, 0.13344733f,
  0.28078616f, -0.24052064f, -0.09149695f, 0.15751226f, 0.05617452f, 0.16112618f,
  -0.00819197f, 0.03673832f, -0.02289942f, 0.06470776f, -0.08744987f, 0.33306316f,
  -0.08232396f, -0.10265845f, -0.17682785f, -0.20597094f, 0.22707662f, -0.23188195f,
  -0.23602387f, 0.64746553f, -0.03484289f, 0.04344441f, -0.03300231f, 0.10396653f,
  0.29125252f, 0.00750813f, 0.10139600f, 0.16951086f, 0.09979834f, -0.11546248f,
  -0.09345409f, -0.00881605f, 0.03328282f, 0.03320288f, 0.07996768f, -0.07711834f,
  0.02131079f, 0.12825207f, -0.05388010f, -0.08386370f, -0.05167764f, 0.95188642f,
  0.38544425f, 0.00476267f, 0.07589152f, -0.09209634f, -0.13444377f, 0.19393530f,
  0.05859404f, 0.26891515f, 0.03525498f, -0.00297771f, 0.02593827f, -0.03440865f,
  0.00409394f, -0.00212228f, -0.48767602f, -0.23065804f, 0.18145406f, -0.07555301f,
  -0.09462501f, 0.03243445f, 0.01673720f, 0.09653986f, 0.03124741f, -0.00371474f,
  -0.21721752f, 0.10546901f, 0.15002939f, 0.07341516f, 0.23866871f, -0.29355919f,
  -0.19563782f, -0.15709430f, -0.35150623f, -0.53903699f, 0.28813362f, 0.46690869f,
  0.30325472f, 0.35536107f, 0.13240600f, -0.03289038f, 0.00624314f, 0.07194296f,
  0.06684982f, 0.03762539f, -0.09811721f, -0.16150744f, -0.02319518f, 0.32615358f,
  0.12649758f, 0.16682066f, 0.05327958f, 0.15400860f, 0.13935500f, -0.11977815f,
  0.19646144f, -0.05238049f, -0.14203000f, 0.00786627f, -0.12018154f, 0.01141491f,
  0.13571981f, 0.11961453f, 0.03294170f, -0.12297788f, 0.17712940f, 0.10815363f,
  0.07188404f, -0.03083111f, -0.00175837f, 0.04915825f, 0.01120236f, -0.10083868f,
  -0.08148965f, -0.01141576f, -1.02882314f, -0.45273885f, -0.17003490f, 0.22242679f,
  0.41522926f, -0.45673007f, -0.11183069f, -0.06791896f, -0.21763472f, 0.09750679f,
  0.16368395f, -0.07668275f, -0.09855625f, 0.02076577f, 0.21031711f, -0.18458350f,
  -0.25686985f, -0.00514438f, -0.09376046f, -0.03373042f, 0.15525956f, -0.09213486f,
  -0.11697013f, -0.02970395f, 0.08227502f, 0.50639981f, 0.28200233f, -0.13158256f,
  -0.20299987f, -0.45249146f, -0.45288378f, 0.02424368f, 0.20857902f, -0.09450684f,
  0.14887953f, 0.09388878f, -0.00450978f, 0.04656329f, 0.11666557f, 0.02706686f,
  0.19953774f, 0.13476568f, -0.09397883f, -0.13888054f, -0.63423336f, -0.07684784f,
  0.00580984f, -0.18457289f, -0.12028298f, -0.24642667f, -0.35013387f, 0.16244575f,
  0.05368591f, 0.01610549f, -0.27335927f, 0.06068102f, 0.15079640f, -0.02533604f,
  -0.20909649f, 0.05491786f, 0.02621578f, 0.28127673f, -0.03499392f, -0.03859195f,
  -0.35733181f, 0.00787035f, 0.00085725f, 0.01082501f, -0.00126949f, 0.02777931f,
  -0.42877862f, 0.09902310f, -0.01533160f, -0.17711090f, -0.11317521f, -0.32666540f,
  -0.09500688f, 0.07714225f, 0.21376321f, 0.27823415f, 0.00864232f, 0.06112622f,
  0.01809521f, -0.12971094f, 0.03520849f, -0.42768592f, -0.48660079f, -0.88405854f,
  -0.36556309f, 0.23809306f, -0.39745614f, -0.26597482f, 0.10864168f, 0.16366254f,
  0.05006342f, -0.02874514f, -0.08473044f, -0.03863510f, 0.01610134f, 0.00962292f,
  -0.43195209f, -0.07712935f, -0.14844331f, 0.49079177f, 0.32261401f, -0.04912602f,
  0.01972063f, 0.04057808f, -0.04842265f, -0.07962426f, -0.58387238f, -0.31542760f,
  -0.05676534f, -0.13844816f, 0.01002709f, 0.46092799f, 0.21973859f, 0.25907129f,
  -0.12253568f, -0.31231651f, 0.44582126f, 0.32894766f, 0.20856601f, 0.14400870f,
  -0.09497937f, -0.00720398f, 0.08859810f, 0.02172996f, -0.00434590f, 0.07324702f,
  -0.34421933f, 0.07124266f, 0.17124416f, 0.23264500f, 0.09502064f, -0.53089112f,
  0.30221149f, 0.33487388f, 0.11800279f, 0.04372768f, -0.01859306f, 0.06311525f,
  0.08285376f, 0.06034897f, -0.12780303f, 0.03952420f, 0.33925295f, 0.06203487f,
  -0.34909832f, -0.13030495f, 1.15977991f, 0.38724273f, 0.02837109f, -0.22827375f,
  -0.17928044f, 0.05765124f, -0.07885859f, -0.09497915f, -0.09287544f, -0.03378380f,
  0.01892597f, 0.13039158f, 0.24811609f, 0.11386378f, 0.17798890f, -0.34913260f,
  -0.20224337f, -0.08308382f, 0.04032909f, 0.17235854f, 0.16146031f, -0.17192128f,
  -0.10509634f, -0.01060381f, -0.47367507f, -0.33501977f, -0.22475785f, -0.37817568f,
  0.07025521f, 0.23359852f, 0.00226125f, 0.15410189f, -0.19075322f, 0.14779827f,
  0.02377646f, 0.05174201f, -0.07100154f, -0.00626969f, -0.14813824f, -0.21878859f,
  0.19394496f, 0.45798621f, 0.10667337f, -0.01657447f, 0.28387019f, 0.02222036f,
  0.14263111f, 0.29604205f, -0.01037724f, 0.07975125f, 0.13956666f, -0.39691159f,
  0.09578381f, 0.43466762f, 0.51407462f, -0.24156272f, -0.23847343f, -0.14706501f,
  0.01648871f, 0.15946199f, -0.31586492f, -0.12834302f, 0.23645306f, -0.49910399f,
  -0.24791574f, -0.28098288f, -0.08489582f, -0.02851534f, 0.01890372f, 0.10284073f,
  -0.35606602f, 0.03272992f, 0.06664117f, 0.15985057f, 0.04359397f, -0.08633786f,
  0.15482816f, -0.01490389f, -0.28491053f, 0.10184120f, -0.30789953f, -0.10665418f,
  0.08939769f, -0.23703746f, -0.11986253f, -0.19496821f, -0.19823880f, 0.08256656f,
  -0.15435100f, -0.67930681f, 0.70539123f, 0.47472459f, -0.01641815f, -0.22558965f,
  -0.51044703f, -0.41221288f, -0.17810836f, 0.00677039f, 0.09733634f, -0.20635481f,
  0.04574468f, 0.16449730f, 0.14198287f, -0.13987076f, 0.13478033f, 0.07898603f,
  0.05526690f, -0.09467612f, -0.02007338f, 0.11725304f, -0.23158154f, -0.09867080f,
  0.02701026f, -0.17943765f, -0.21337610f, -0.33358619f, -0.11179983f, 0.16698146f,
  -0.08392107f, 0.08993284f, -0.22924067f, 0.09955377f, 0.34353554f, -0.30694520f,
  0.01686930f, -0.07833157f, 0.01368526f, -0.01285261f, 0.14656289f, 0.25907275f,
  -0.08124954f, -0.01803445f, -0.03303085f, -0.16453460f, -0.27866977f, -0.06517759f,
  -0.06164244f, 0.00174589f, 0.05902940f, -0.05502011f, 0.15961152f, -0.07715534f,
  0.23639670f, -0.12212797f, -0.04503499f, -0.14221919f, 0.18546496f, 0.08391149f,
  0.15851007f, 0.21395111f, -0.62636083f, -0.09075630f, -0.02940895f, 0.05729952f,
  1.11285186f, 0.01024494f, -0.22953723f, -0.08764476f, -0.32962239f, -0.60457045f,
  -0.12252653f, -0.08842628f, -0.46204007f, 0.10112348f, 0.01865404f, 0.07777592f,
  0.03250803f, -0.12728669f, -0.07419790f, -0.08022757f, -0.21984346f, 0.05097319f,
  0.00570076f, 0.19608322f, 0.01872211f, -0.42467278f, 0.02091543f, 0.01086060f,
  0.10902827f, 0.47787541f, 0.04241041f, -0.13446133f, -0.17791599f, 0.07392058f,
  0.14375083f, 0.01159744f, 0.03491740f, 0.10514136f, -0.10286922f, -0.07702608f,
  0.13426101f, -0.19312185f, -0.13604549f, 0.01452697f, -0.26736057f, -0.08644943f,
  -0.00486723f, 0.02383347f, -0.07767865f, 0.39735743f, -0.28049016f, -0.22134909f,
  0.31446847f, -0.17661221f, -0.45269403f, 0.10892571f, -0.07786165f, -0.29182851f,
  -0.52627861f, -1.22387493f, -0.13147262f, -0.22589728f, 0.24363913f, -0.00098307f,
  0.64681089f, 0.06925420f, 0.00456391f, 0.05050236f, 0.07380150f, 0.16255979f,
  0.15309057f, 0.24795286f, 0.31594664f, -0.15786214f, -0.11099189f, -0.09721509f,
  -0.01318985f, -0.04602524f, 0.08167473f, -0.29087228f, 0.18575259f, -0.02480246f,
  -0.21653192f, 0.10612581f, -0.05616007f, 0.00648863f, -0.08661135f, -0.14102218f,
  0.16774520f, 0.20191149f, -0.11868794f, 0.19796123f, -0.05341504f, 0.06124592f,
  0.15719077f, 0.21227838f, 0.03274336f, -0.16052908f, 0.12122938f, -0.28505641f,
  -0.19525839f, -0.04229723f, 0.00791849f, 0.06539720f, -0.04971206f, -0.26028696f,
  -0.22018617f, -0.33854544f, -0.18364020f, -0.18690026f, -0.29932171f, -0.11885168f,
  0.12435880f, -0.94877106f, 0.11291381f, -0.12712738f, -0.16282305f, 0.01561154f,
  0.07523301f, 0.11825637f, 0.24157089f, 0.01186916f, 0.00906918f, 0.00272192f,
  -0.06608516f, 0.22892676f, 0.02050729f, -0.12407372f, -0.18533520f, -0.01845777f,
  -0.06610234f, 0.05275878f, -0.15746629f, -0.26011848f, -0.12313598f, -0.53330284f,
  -0.23110616f, -0.11490274f, -0.11905077f, -0.08584137f, 0.14192852f, 0.35477963f,
  0.26871544f, 0.23728386f, 0.09122692f, -0.06109829f, 0.03098425f, -0.04274956f,
  -0.17447768f, -0.02769955f, -0.02147477f, -0.05313302f, -0.16226274f, -0.04652701f,
  0.12841903f, 0.03708686f, -0.19301650f, -0.28547031f, -0.06631318f, 0.01402932f,
  0.15641257f, 0.14547077f, -0.33520731f, -0.41899326f, 0.22281465f, 0.01593214f,
  0.07391960f, -0.10568399f, -0.23654680f, -0.04306776f, -0.44634405f, -0.09893975f,
  -0.05211318f, 0.08064327f, 0.10583675f, -0.00492817f, 0.09666031f, -0.10683661f,
  -0.08063508f, -0.00929353f, -0.32655933f, -0.16128278f, 0.10426340f, 0.20592649f,
  0.30689821f, 0.02814035f, -0.00223421f, -0.24550679f, -0.08244886f, -0.01305305f,
  0.11955849f, -0.00681796f, 0.56457436f, 0.07790524f, -0.67386961f, 0.11665459f,
  -0.04731520f, 0.07162057f, 0.01468970f, 0.07728624f, 0.04755696f, 0.32743248f,
  -0.00591084f, 0.09043626f, 0.24283122f, 0.08570762f, -0.05110683f, 0.02094606f,
  -0.07555180f, 0.17140424f, -0.37591648f, -0.04343021f, 0.03192643f, -0.01838966f,
  -0.00054684f, 0.01054507f, 0.26959810f, -0.07906845f, 0.18421598f, 0.51442397f,
  0.06243542f, 0.22995508f, 0.33352119f, 0.34075001f, 0.42578033f, -0.19102500f,
  -0.18355162f, 0.04080342f, 0.09442637f, 0.31902161f, 0.01830917f, -0.01261950f,
  0.08206749f, 0.33763972f, 0.75314468f, -0.05260472f, 0.11874368f, -0.15356095f,
  0.42071816f, 0.64570314f, 0.31010607f, 0.23045969f, 0.15952049f, -0.17431711f,
  -0.22229068f, 0.11758107f, -0.02195437f, -0.41388702f, -0.14419971f, -0.16271876f,
  0.35132405f, 0.24722154f, 0.03597189f, -0.08029298f, 0.16029543f, 0.14327292f,
  0.17049299f, 0.10660586f, -0.12062184f, -0.20164397f, -0.94868898f, -0.47954696f,
  -0.08408253f, 0.32127935f, 0.79325509f, -0.67235589f, -0.09263784f, 0.23404638f,
  -0.23847286f, -0.26715559f, 0.19868155f, 0.05531148f, -0.02803797f, 0.10349751f,
  -0.42237133f, -0.43362829f, -0.05147866f, -0.01442480f, 0.01937375f, -0.08303708f,
  0.14892094f, -0.09111896f, -0.12530895f, -0.13235219f, -0.14387795f, 0.28320685f,
  -0.07071596f, -0.02187094f, 0.02912919f, -0.21458450f, -0.11036606f, -0.09366357f,
  -0.06246571f, 0.04089879f, 0.04295618f, -0.00686451f, -0.08340974f, -0.27435327f,
  0.03103719f, 0.19473994f, 0.01844289f, 0.08989960f, 0.01596208f, -0.04875961f,
  0.01966706f, -0.22872564f, -0.18457289f, -0.02020579f, 0.06697019f, -0.13589956f,
  0.03985098f, 0.11050843f, -0.12764269f, -0.10183635f, 0.21127596f, 0.06800009f,
  -0.12055774f, -0.20383900f, 0.18685088f, 0.46621907f, 0.40176326f, 0.28476539f,
  -0.35391343f, -0.09004034f, -0.99115771f, 0.04855391f, -0.10677975f, -0.10068745f,
  0.14110917f, -0.09943838f, -0.36485314f, -0.03705689f, 0.24364474f, 0.10931910f,
  -0.03885617f, -0.22321348f, 0.21331763f, 0.00559550f, 0.11359535f, 0.01682169f,
  0.29912934f, 0.26433632f, 0.04182184f, -0.32068342f, -0.49413425f, -0.18889938f,
  -0.06275596f, 0.00225657f, -0.01770675f, 0.35456178f, 0.18658920f, 0.13147353f,
  -0.00954631f, 0.23384735f, 0.11585663f, -0.16607232f, 0.04253363f, -0.03171883f,
  -0.23518439f, -0.12718062f, 0.39719272f, 0.29173067f, 0.21003057f, 0.05796941f,
  0.01272546f, 0.00088357f, -0.03070214f, 0.12806284f, 0.02739062f, -0.21074055f,
  -0.12021442f, -0.09668184f, -0.02690264f, 0.11613535f, -0.22707942f, -0.10615409f,
  -0.18985203f, -0.05652586f, -0.49405006f, -0.40325695f, -0.03953738f, -0.25379083f,
  -0.12362397f, -0.03168680f, -0.15118904f, 0.12461463f, 0.19165038f, -0.16726606f,
  -0.16252507f, -0.33367479f, -0.03461518f, -0.11944584f, -0.19433248f, -0.31066155f,
  -0.60108286f, -0.06648685f, -0.03618414f, 0.09650530f, -0.17333321f, -0.28896061f,
  -0.22888218f, -0.33785585f, -0.00629648f, 0.18324193f, 0.06093698f, -0.10000625f,
  -0.12456974f, -0.17130278f, -0.10138888f, -0.02359759f, -0.56695235f, -0.25410891f,
  0.06270019f, -0.02392511f, 0.11004395f, -0.32812256f, -0.21544871f, -0.14654486f,
  -0.04619310f, 0.14182481f, -0.24540935f, 0.03070278f, -0.15592238f, 0.09035539f,
  -0.10274632f, -0.17437163f, -0.12909165f, 0.00435585f, -0.01626435f, -0.10541762f,
  -0.02704703f, 0.20284890f, 0.19431469f, -0.00104937f, -0.00371309f, 0.31648529f,
  -0.10488597f, 0.05467713f, -0.14136308f, 0.05299174f, -0.19427086f, 0.21779992f,
  -0.04485277f, 0.10114772f, 0.10778676f, 0.29859939f, 0.28657055f, 0.22799276f,
  -0.04742287f, -1.09899628f, 0.04043299f, 0.11152039f, 0.20557036f, -0.09754157f,
  -0.09037763f, -0.06111704f, 0.02029165f, -0.20652902f, -0.07800926f, 0.05807958f,
  -0.11801710f, 0.07661108f, -0.13388531f, 0.09856281f, 0.80124116f, -0.21015054f,
  -0.10368012f, -0.23824473f, 0.12729934f, 0.14011844f, 0.30286646f, 0.01541313f,
  -0.12409993f, 0.01626800f, -0.20662369f, -0.09583478f, -0.28962100f, 0.04180794f,
  0.03116857f, 0.28272060f, -0.13987570f, 0.04619868f, -0.00087057f, -0.01423564f,
  -0.05589440f, 0.05208331f, -0.26524776f, 0.03564851f, 0.12607239f, -0.13500240f,
  -0.00241412f, -0.16332933f, -0.02748798f, 0.01366451f, -0.03625742f, -0.00832118f,
  0.17147614f, 0.02726542f, 0.27071431f, 1.07954800f, -0.06153242f, -0.07023484f,
  -0.01218398f, 0.12546423f, -0.02133896f, 0.27592659f, -0.01790623f, -0.15587620f,
  -0.04027665f, -0.21926768f, 0.11079864f, 0.20045349f, -0.07482458f, -0.13530874f,
  0.10473970f, 0.23898223f, 0.18768473f, -0.10313979f, 0.02839246f, 0.35026088f,
  -0.12832461f, 0.04790815f, 0.03783858f, 0.08605553f, 0.15633585f, -0.58283025f,
  -0.12019342f, 0.01760518f, -0.23079258f, -0.38018352f, -0.02284749f, 0.06019130f,
  0.08512922f, -0.10214528f, 0.13617910f, -0.17325954f, -0.11871971f, 0.09242617f,
  0.05870390f, 0.08476901f, -0.18811879f, -0.11398643f, 0.17193605f, -0.17890511f,
  0.35706839f, -0.31201777f, -0.21117266f, -0.29989684f, -0.17133150f, -0.07495859f,
  0.36510891f, -0.16777112f, -0.01386861f, -0.14393687f, -0.62697881f, 0.04529652f,
  -0.06159452f, -0.23286985f, -0.12627414f, 0.01426102f, 0.43797234f, -0.08833168f,
  -0.52790117f, -0.08656520f, -0.03387635f, 0.06869207f, -0.02360397f, 0.03423046f,
  -0.03561563f, -0.12817076f, 0.13539638f, 0.12962706f, -0.05349272f, -0.03687250f,
  -0.13765150f, 0.03200034f, -0.14760244f, -0.22683968f, -0.22459832f, -0.32939577f,
  0.31179091f, 0.23871903f, 0.01001039f, -0.05665609f, -0.40640968f, 0.48909667f,
  -0.08430663f, -0.43043730f, 0.14853016f, 0.18044643f, -0.69054061f, -0.21328253f,
  0.00887762f, -0.48072323f, 0.24856070f, 0.10105930f, 0.05887786f, -0.00922896f,
  -0.10856374f, 0.00617251f, -0.12008689f, 0.18898313f, 0.32913491f, 0.51676083f,
  0.31080538f, -0.07283375f, -0.04994938f, 0.06406648f, -0.00277855f, 0.00620395f,
  0.51691687f, 0.34408262f, -0.11587083f, -0.02122174f, -0.07128377f, -0.16359356f,
  0.17532755f, 0.22368763f, 0.06630383f, -0.07662345f, -0.35607746f, -0.12961708f,
  -0.21631257f, -0.05557204f, 0.43312177f, -0.02909193f, 0.06193300f, -0.09231121f,
  -0.05346954f, 0.15707515f, 0.01630409f, -0.02189432f, -0.00543914f, -0.01580792f,
  -0.01301056f, 0.05992079f, -0.15710080f, -0.31467259f, -0.32477471f, -0.42258331f,
  0.02683000f, 0.03894231f, -0.04937761f, -0.03095748f, 0.24468598f, 0.22056669f,
  0.28251341f, -0.05554546f, -0.00697365f, 0.74105132f, 0.00628241f, -0.05237296f,
  -0.18976212f, -0.03864368f, 0.13891168f, 0.07109480f, 0.09069046f, -0.01496335f,
  0.07829721f, 0.21481584f, -0.07486653f, 0.06158018f, 0.03686767f, 0.10038666f,
  -0.09384301f, -0.11152030f, -0.00613979f, 0.02675322f, 0.14523330f, 0.08318419f,
  -0.02141243f, 0.08984237f, 0.01642776f, -0.19604655f, -0.21610782f, -0.32595512f,
  -0.00102670f, -0.09143270f, 0.17440087f, -0.00468442f, 0.02221249f, 0.20875944f,
  0.08063541f, -0.00736616f, 0.12994607f, 0.60724300f, 0.37276468f, 0.09115178f,
  -0.00007141f, 0.49449787f, 0.04705107f, 0.08304651f, -0.12080175f, -0.09249129f,
  0.04368449f, 0.00497004f, -0.03407194f, 0.04766568f, -0.04529652f, -0.02030088f,
  0.10905822f, 0.20624337f, -0.11841051f, 0.15306135f, -0.08993909f, 0.16981828f,
  0.03578774f, 0.24402125f, 0.14859520f, 0.05661037f, -0.26547652f, -0.00665774f,
  -0.06447943f, -0.42511728f, -0.07332543f, 0.12153054f, 0.00738865f, 0.36193225f,
  0.49492219f, 0.15912515f, -0.08203205f, 0.18904842f, 0.11235034f, -0.48397690f,
  -0.01332226f, -0.06069880f, 0.05485732f, -0.03899776f, -0.25517768f, 0.00767328f,
  -0.02958983f, 0.08959628f, 0.07274757f, -0.11191131f, -0.08664767f, -0.06787268f,
  -0.01854678f, 0.32133427f, 1.05775189f, 0.56310236f, -0.74620384f, -0.47413224f,
  -0.15842187f, 0.34150454f, 0.25685200f, -0.03575100f, -0.04447189f, -0.06632061f,
  -0.13565014f, -0.44640359f, -0.03477953f, 0.22381075f, 0.21675979f, -0.21739571f,
  0.15137661f, 0.14393167f, -0.02802586f, 0.11975731f, 0.06294476f, -0.19439737f,
  0.73354125f, 0.10576042f, -0.29687226f, 0.12687974f, -0.13352531f, 0.03042077f,
  0.07981595f, 0.03555286f, 0.04568569f, 0.03302622f, -0.06638114f, -0.16747642f,
  -0.00704565f, -0.22267027f, 0.03956082f, -0.51013148f, -0.21450594f, 0.18379560f,
  -0.05824043f, 0.00456459f, 0.08256426f, -0.08350594f, 0.20762180f, -0.30748791f,
  -0.34560385f, 0.11097660f, -0.10201066f, 0.22712083f, 0.07835048f, -0.11789508f,
  0.17679995f, 0.29678258f, -0.23018514f, 0.14619397f, -0.05516588f, 0.21750814f,
  -0.03307313f, -0.03504459f, 0.10153603f, 0.27140182f, 0.13521376f, 0.57646561f,
  -0.19965068f, -0.23397756f, 0.07047382f, 0.49786329f, 0.29427776f, 0.09722055f,
  -0.04396089f, -0.08230238f, -0.23241673f, -0.16527613f, 0.23993665f, 0.03382773f,
  -0.25367993f, 0.03434063f, 0.19577469f, -0.05157835f, 0.13184264f, 0.27611572f,
  0.25114509f, 0.06974648f, -0.17548646f, -0.10355971f, 0.12436609f, 0.18472204f,
  -0.17251684f, -0.12752797f, -0.25322956f, -0.70058948f, 0.07983612f, -0.24574260f,
  -0.17441623f, 0.48620680f, -0.27330399f, -0.03230937f, -0.07178510f, 0.04367837f,
  0.04011659f, -0.13821445f, 0.58400059f, 0.22660713f, -0.13141337f, -0.19567537f,
  -0.28569287f, 0.05733086f, -0.09161353f, 0.06497713f, -0.03697937f, -0.09000374f,
  0.45650563f, 0.30384210f, 0.07359010f, 0.40664828f, 0.01879466f, -0.30783102f,
  0.16039187f, 0.15459940f, -0.23853207f, 0.33644360f, 0.03413354f, 0.15473738f,
  0.10597677f, -0.29567343f, -0.23589247f, 0.06478175f, 0.03853314f, -0.01510420f,
  -0.09030467f, -0.06382307f, 0.23441811f, -0.32168120f, -0.21674384f, 0.13945998f,
  -0.05236420f, 0.26766992f, -0.16647567f, -0.09409819f, 0.11088230f, 0.02494259f,
  -0.28796932f, -0.14636452f, 0.02844544f, 0.21923201f, 0.13472529f, 0.15350182f,
  0.03963130f, 0.16764872f, -0.25240725f, -0.71948689f, -0.28248808f, 0.06853691f,
  0.10563531f, -0.23821986f, -0.07592428f, -0.12072191f, -0.02083718f, 0.02450356f,
  -0.03448188f, 0.08002476f, -0.22679095f, -0.06779660f, -0.02927517f, 0.12819992f,
  -0.10311040f, 0.10729875f, -0.01335332f, -0.00941430f, 0.08420465f, 0.31542575f,
  0.28444102f, 0.41214693f, 0.01339111f, -0.10472721f, 0.10552154f, 0.01498821f,
  -0.07251790f, -0.15066886f, -0.05308420f, -0.21554664f, -0.37047815f, -0.05528367f,
  0.08045186f, -0.03393055f, -0.41234872f, 0.23267874f, 0.00213419f, -0.00723615f,
  -0.01781690f, -0.26543325f, -0.26059327f, -0.42875290f, -0.27560636f, -0.54981554f,
  -0.20239212f, 0.16890442f, 0.12712643f, 0.37818071f, 0.51061028f, 0.56942493f,
  -0.10973673f, 0.11986008f, 0.18188706f, 0.28612274f, 0.43227974f, -0.11619774f,
  -0.05042911f, -0.09959688f, 0.02726970f, -0.03771849f, -0.60506773f, -0.38161871f,
  -0.31231675f, -0.01795657f, 0.09998054f, -0.21511163f, -0.06332190f, 0.01354572f,
  0.72340989f, 0.54488271f, 0.10921606f, 0.10961664f, 0.00057356f, -0.26524869f,
  0.08741295f, 0.03071888f, 0.06990101f, 0.29150003f, -0.00347294f, -0.11675887f,
  0.09509858f, -0.28777748f, -0.11992769f, 0.10916832f, -0.19396536f, -0.11019178f,
  -0.22124985f, -0.05474967f, -0.01026920f, 0.06298726f, -0.06936993f, -0.18283355f,
  -0.08002732f, -0.25270787f, -0.58514631f, -0.32889181f, -0.39324239f, -0.32037234f,
  -0.28191674f, 0.38894218f, -0.02651311f, -0.46929288f, 0.13430582f, 0.29274520f,
  -0.15439484f, 0.17535953f, 0.14212234f, 0.33135572f, 0.11422431f, 0.03157185f,
  0.25570735f, 0.14031203f, -0.08130123f, 0.18321654f, -0.21335272f, 0.08927544f,
  -0.00180152f, 0.16700175f, 0.16046087f, 0.12475128f, -0.36042005f, 0.20222297f,
  0.27929243f, -0.11954682f, -0.05022018f, 0.01349225f, 0.04527844f, 0.27919513f,
  -0.19192567f, -0.22560783f, 0.09240358f, 0.14992541f, -0.32990524f, 0.25202924f,
  -0.06845584f, -0.09098640f, -0.08855238f, -0.19728741f, 0.19969815f, 0.08368034f,
  -0.15332009f, 0.03461565f, 0.38434413f, 0.16614813f, 0.19746995f, -0.14143698f,
  0.05987738f, -0.02066987f, -0.11763155f, -0.04621643f, -0.32580435f, -0.42605358f,
  0.05885983f, 0.11923040f, 0.08046077f, -0.10295316f, -0.29539958f, 0.01921679f,
  -0.09058818f, 0.02498208f, -0.73579377f, -0.28912818f, 0.26554248f, 0.04634470f,
  -0.07668624f, -0.12662771f, 0.26899564f, 0.29682928f, 0.01216935f, 0.09617446f,
  -0.09970039f, -0.03313597f, 0.01601481f, 0.01249063f, 0.16527134f, -0.07307766f,
  -0.03681518f, -0.09266951f, 0.03413616f, 0.02581045f, 0.03554861f, -0.06081370f,
  0.00167427f, 0.12048779f, 0.13381904f, -0.17692599f, 0.30605456f, 0.60280806f,
  0.92335993f, 1.01236951f, -0.15833437f, 0.10625106f, -0.08552975f, 0.01739613f,
  0.22403486f, -0.12506735f, 0.10469256f, 0.30391347f, 0.18580706f, -0.03081431f,
  -0.00909253f, -0.17916749f, 0.04144393f, 0.17505698f, -0.25142291f, 0.05488823f,
  -0.03947430f, -0.03882357f, 0.00126859f, -0.07613082f, -0.10732915f, 0.15491500f,
  -0.04231091f, 0.30746347f, 0.24318087f, 0.76932812f, 0.64311010f, 0.55875450f,
  0.38387451f, 0.07849666f, -0.07962447f, -0.21244256f, -0.42573717f, 0.01409173f,
  -0.28848472f, -0.18496321f, 0.16042592f, 0.04075530f, -0.01294937f, 0.16326410f,
  -0.16008967f, 0.30143726f, 0.02156938f, -0.07200066f, 0.07097599f, 0.26757652f,
  -0.00792336f, -0.19141385f, -0.05446067f, 0.13490337f, -0.11742378f, 0.03540776f,
  -0.06706406f, 0.08637555f, 0.10071034f, -0.43505314f, -0.04932044f, 0.07828563f,
  0.01224259f, -0.05698919f, -0.01267711f, -0.01353451f, -0.00110129f, 0.07492367f,
  -0.02884302f, -0.13676709f, -0.00258177f, -0.11416286f, -0.05376324f, 0.17658253f,
  0.14789079f, -0.06086443f, 0.06570476f, 0.03118270f, 0.05247867f, 0.24825749f,
  -0.16925468f, -0.06287529f, -0.02784313f, -0.55811757f, 0.35176858f, 0.00051838f,
  0.06026783f, -0.00471060f, -0.19324981f, 0.87529629f, 0.38517743f, -0.08906186f,
  0.18577757f, -0.07500733f, 0.04504597f, -0.02051655f, -0.05914816f, -0.02680523f,
  -0.07433839f, -0.01009303f, 0.06634691f, 0.06602567f, 0.11906108f, -0.06724390f,
  -0.07990217f, 0.22759187f, 0.36405197f, -0.00731002f, -0.14936724f, -0.34783632f,
  -0.20358363f, -0.22104454f, -0.28856936f, -0.19523242f, -0.68740344f, -0.44843847f,
  -0.11701415f, 0.00593601f, 0.39485928f, -0.01714166f, -0.03863887f, -0.23303752f,
  -0.07491240f, 0.05865085f, -0.46879017f, 0.22542316f, -0.09701116f, -0.02691859f,
  0.04693525f, 0.07087114f, 0.07964598f, -0.07631725f, -0.05955650f, 0.14508222f,
  -0.37973899f, -0.02177504f, -0.00935386f, 0.04505946f, 0.09255455f, -0.59509212f,
  0.03407551f, 0.33569869f, -0.20194896f, -0.26947027f, 0.46391577f, 0.21246770f,
  -0.11757830f, -0.19029516f, -0.54720891f, -0.13548745f, 0.13848770f, 0.15849259f,
  0.08474787f, 0.11751734f, -0.06533469f, 0.03921697f, 0.01463370f, 0.09930708f,
  0.09600185f, 0.07855577f, -0.02454272f, 0.09102972f, -0.46265873f, -0.93899977f,
  -0.11777624f, -0.20915134f, 0.14333880f, 0.08110805f, -0.02535744f, 0.04258840f,
  0.17588262f, 0.21558967f, 0.00198935f, -0.40092781f, 0.05927211f, 0.09055895f,
  -0.08933923f, -0.40449840f, -0.13178082f, 0.11975439f, 0.03390141f, -0.19341721f,
  -0.03538233f, -0.03729936f, 0.20540847f, -0.06508216f, -0.27645347f, -0.12417953f,
  -0.14693339f, -0.25552201f, -0.04747459f, 0.08143366f, 0.01745740f, -0.26068029f,
  0.05962048f, 0.56585753f, 0.47655630f, 0.28505152f, -0.02623268f, -0.05990315f,
  -0.00576364f, 0.10393757f, -0.18504702f, 0.17035867f, -0.18452387f, -0.05251194f,
  0.21053979f, -0.07060041f, 0.25497603f, -0.31055221f, 0.05431563f, 0.05279778f,
  -0.11464348f, 0.01242426f, 0.12204328f, -0.06115547f, 0.18226437f, 0.03688479f,
  -0.18206282f, 0.06859815f, 0.09675289f, 0.07925699f, 0.12202121f, 0.64674634f,
  -0.01017352f, -0.01765345f, 0.00225773f, 0.11957696f, 0.01139867f, -0.14912964f,
  0.05156729f, -0.19411972f, 0.07439328f, 0.09176814f, -0.02520313f, 0.00107142f,
  0.12896107f, -0.21848367f, -0.08007200f, -0.59434807f, -0.26072413f, 0.25809690f,
  -0.03317666f, -0.29768598f, 0.17002231f, -0.05388145f, 0.09793253f, -0.10897405f,
  -0.35220227f, -0.32028732f, -0.10446592f, -0.01843722f, -0.13517362f, 0.09508467f,
  0.15255295f, 0.02414956f, -0.03079083f, -0.05787785f, 0.15236892f, -0.00399071f,
  0.01937895f, 0.07388754f, 0.04573565f, -0.04799073f, 0.01317938f, 0.02813924f,
  0.21445739f, -0.08633605f, -0.22246756f, 0.73124421f, 0.18056569f, -0.35270301f,
  -0.12115901f, -0.08418064f, -0.25503752f, -0.23147364f, -0.20495516f, -0.03176717f,
  0.20222226f, -0.07167809f, 0.04559688f, 0.00427654f, -0.06236272f, 0.00006735f,
  -0.60328215f, 0.24022759f, 0.03460038f, 0.03074157f, 0.32468107f, -0.01899906f,
  0.12645955f, 0.15129288f, -0.06396048f, -0.01863014f, -0.18426985f, 0.00461891f,
  -0.10427060f, 0.01655428f, 0.18943624f, -0.62662256f, -0.26275647f, -0.02347352f,
  -0.35299689f, -0.62053120f, -0.31151235f, -0.27139843f, -0.05326498f, 0.45819932f,
  0.56897056f, -0.60088563f, 0.08585034f, -0.02569990f, -0.09536567f, -0.11485664f,
  0.00416525f, 0.21184334f, 0.13627887f, -0.30476934f, 0.18924554f, -0.06416355f,
  -0.10131290f, 0.03390273f, -0.00995967f, 0.13410920f, -0.35835767f, 0.12530529f,
  0.26097351f, 0.40001085f, 0.05371488f, 0.26859918f, 0.14571378f, -0.21053188f,
  -0.09584655f, 0.02802230f, -0.27043617f, -0.15041952f, -0.11745549f, -0.08887298f,
  0.10970823f, 0.30595958f, -0.07982276f, 0.01683359f, 0.02991852f, -0.17082891f,
  0.17057519f, -0.18661238f, 0.10139516f, 0.00948302f, -0.62619638f, -0.33590046f,
  -0.08253907f, 0.19663316f, 0.03399286f, 0.00890501f, -0.41568419f, 0.41564584f,
  0.25855094f, 0.02176780f, -0.06018022f, -0.35941830f, 0.17328189f, 0.08219252f,
  0.15964831f, -0.04768912f, 0.16655986f, 0.39685881f, -0.03260931f, -0.42613772f,
  -0.54905450f, -0.21088102f, -0.24481505f, 0.12719601f, 0.00093029f, -0.05757151f,
  0.13116489f, -0.44242617f, -0.14192310f, 0.04487078f, 0.21702683f, -0.11823127f,
  0.17552800f, 0.06129042f, -0.04708105f, 0.01226663f
};

static const float ae_enc_conv2_b[32] = {
  -0.02267095f, 0.06219800f, 0.01858745f, 0.06321896f, -0.08277867f, -0.10472386f,
  -0.00223056f, -0.06887205f, 0.04061558f, -0.05858480f, 0.04871758f, 0.04225511f,
  0.07179879f, 0.08926371f, 0.06232748f, 0.07133289f, -0.03439735f, 0.03019601f,
  -0.10291060f, -0.08175462f, 0.05666924f, -0.05641268f, -0.07203270f, -0.10257527f,
  0.04499786f, -0.02196966f, 0.10045524f, 0.08886692f, -0.07487909f, 0.02708538f,
  -0.07969746f, -0.02377661f
};

static const float ae_enc_bn2_w[32] = {
  0.65392751f, 0.63168687f, 0.78741848f, 0.67679310f, 0.61949950f, 0.64322132f,
  0.63874757f, 0.55798751f, 1.06658566f, 0.93496078f, 0.58986396f, 0.87039578f,
  0.67882609f, 0.71899009f, 0.62589014f, 0.79676205f, 0.75721753f, 0.77426422f,
  0.74934274f, 0.54228503f, 0.73748308f, 0.71102959f, 0.72153926f, 0.68908066f,
  0.79697442f, 0.68384993f, 0.83133763f, 0.72307056f, 0.77358264f, 0.60670871f,
  0.88946962f, 0.66967285f
};

static const float ae_enc_bn2_b[32] = {
  -0.13851342f, -0.09787010f, -0.21761546f, -0.27883115f, -0.30417624f, -0.14853141f,
  -0.34873074f, 0.03495660f, -0.45825380f, -0.00946105f, -0.10653152f, 0.10347282f,
  -0.10014871f, 0.07098984f, -0.26608959f, -0.03279362f, 0.03384039f, -0.34248036f,
  0.00928259f, -0.16546114f, 0.03056541f, -0.02780350f, 0.08165432f, -0.16738443f,
  -0.01230318f, -0.02366805f, -0.15107188f, 0.15713207f, -0.05305139f, -0.06737813f,
  -0.10268452f, -0.02705747f
};

static const float ae_enc_bn2_rm[32] = {
  -0.88416296f, -0.58237046f, -1.88594580f, -1.99507046f, 0.08389495f, 2.26537538f,
  -3.10372925f, 0.04344408f, -0.54719716f, 1.68200719f, -2.46582842f, 1.13132501f,
  -1.37585354f, -0.35328797f, -0.01707561f, -1.82570875f, 4.70761728f, -1.09482229f,
  -4.28581333f, 0.57827389f, -2.35277319f, -0.33537892f, 0.98942000f, -0.18507257f,
  -0.59666771f, -0.21308543f, -0.09785415f, 1.01055539f, -1.62967253f, 1.51380527f,
  -2.49460316f, -0.44241446f
};

static const float ae_enc_bn2_rv[32] = {
  2.14421010f, 3.83461976f, 3.17041826f, 1.59180498f, 1.45071650f, 3.88943124f,
  2.27501988f, 3.37355542f, 6.22113705f, 4.32724667f, 1.69416249f, 2.82907248f,
  3.91925669f, 3.53557897f, 1.27735603f, 7.42981720f, 2.66882396f, 0.80621958f,
  4.18929195f, 0.76666397f, 4.75463486f, 2.95309186f, 4.25770760f, 2.12114096f,
  2.10335302f, 3.29264283f, 4.10542870f, 4.90106392f, 4.37261200f, 2.12294817f,
  5.25565863f, 1.97422242f
};

static const float ae_enc_conv3_w[10240] = {
  -0.19541615f, 0.10809543f, -0.03179556f, 0.19644758f, 0.28054932f, 0.43706375f,
  0.10845014f, -0.11380907f, 0.05950518f, -0.01734838f, 0.28292412f, -0.02248966f,
  -0.00815120f, 0.06612017f, -0.26811105f, 0.08076982f, -0.12620054f, -0.14606757f,
  -0.03385228f, 0.27784169f, -0.08781279f, 0.06941365f, 0.00950310f, -0.23936549f,
  -0.25483286f, 0.34654623f, 0.11868152f, 0.00657268f, -0.10403442f, 0.00228078f,
  0.01299554f, 0.09714187f, 0.04892517f, 0.10340424f, 0.01326312f, 0.06462350f,
  0.10704773f, 0.02268536f, -0.07322557f, -0.18394832f, 0.30495584f, 0.23935120f,
  0.16574161f, -0.11059838f, 0.10546809f, -0.03124841f, -0.09146182f, -0.04270670f,
  -0.09150893f, 0.15718625f, -0.04743104f, 0.11410648f, -0.03800842f, -0.09574790f,
  -0.22745167f, -0.06946987f, -0.06630111f, -0.02618517f, -0.14255342f, 0.02324745f,
  -0.19314276f, -0.17681699f, 0.12035950f, -0.19975558f, -0.43338659f, 0.16940494f,
  -0.03377537f, -0.03437302f, -0.00529098f, -0.08527869f, 0.15395178f, 0.10754292f,
  -0.07824963f, 0.03138566f, -0.19159089f, -0.00965651f, 0.04084896f, -0.04979938f,
  0.02579381f, 0.07475501f, -0.10115396f, -0.11060150f, 0.21900073f, 0.01265816f,
  -0.25709119f, -0.44187209f, -0.23873697f, 0.15280811f, 0.04072101f, 0.08859205f,
  -0.04261897f, -0.00053558f, -0.12701569f, -0.03598490f, -0.11810932f, 0.10869399f,
  -0.02964613f, -0.08512863f, -0.06302426f, 0.29134345f, 0.13255580f, 0.14625922f,
  0.03945399f, -0.21767239f, -0.58628196f, 0.09593237f, 0.06156818f, 0.07260162f,
  0.08928401f, 0.11595093f, -0.53785455f, -0.13967396f, -0.12417631f, 0.00292179f,
  0.35661224f, -0.13113493f, 0.04638612f, 0.02704672f, -0.03327251f, 0.19392665f,
  0.12580171f, 0.09147456f, -0.04972754f, -0.06838180f, -0.00124130f, -0.07059314f,
  0.09323995f, 0.06749462f, -0.29416034f, -0.20986299f, -0.13132744f, 0.29890904f,
  -0.04711467f, 0.00762546f, -0.10715272f, 0.28916588f, 0.03300055f, -0.08318744f,
  -0.07430616f, -0.29850650f, -0.68495965f, -0.05619744f, 0.19116025f, 0.12278716f,
  0.12361667f, -0.24570726f, -0.02077297f, -0.13215753f, 0.20771982f, 0.54403055f,
  0.32959798f, 0.12764829f, -0.13160700f, 0.01957200f, -0.19714758f, -0.27644223f,
  -0.06342511f, 0.11059151f, 0.10848356f, 0.25683099f, -0.01706339f, -0.06250321f,
  0.32376361f, 0.05482195f, -0.05486189f, -0.24386270f, -0.11356837f, -0.05898229f,
  -0.02461910f, 0.23407695f, -0.19501525f, 0.09583649f, -0.03809305f, 0.06520858f,
  -0.02368218f, -0.38607106f, -0.16181159f, -0.15856913f, 0.14652567f, -0.42372122f,
  0.17137046f, -0.02214299f, 0.00248438f, -0.22665201f, 0.27036518f, -0.00112549f,
  0.06529403f, -0.20446947f, 0.20730896f, 0.13831456f, 1.26629996f, 0.14867206f,
  -0.40478915f, 0.21874438f, 0.21655127f, 0.06652444f, 0.13384749f, -0.16671503f,
  0.15988916f, -0.46486878f, -0.26932207f, -0.07852665f, 0.01535794f, 0.17773829f,
  -0.44313750f, -0.23315845f, 0.02135145f, -1.00480664f, 0.02822508f, -0.51767623f,
  0.07141458f, 0.26040164f, 0.10515168f, 0.15310703f, -0.32985109f, -0.08136354f,
  -1.16253376f, -0.45087385f, 0.50312608f, -0.41043261f, 0.03816459f, 0.08952217f,
  0.25082961f, 0.20205984f, 0.05135733f, -0.84410322f, 0.21597891f, 0.44018346f,
  -0.41697472f, -0.47800645f, -0.52828187f, 0.19837558f, -0.15772611f, 0.24596740f,
  0.05868874f, -0.78079456f, -0.19927248f, -0.11505882f, -0.18524170f, 0.09725283f,
  -0.46108794f, 0.07686110f, 0.30640802f, -0.52071238f, 0.34187454f, 0.19263750f,
  0.17753384f, 0.06285992f, -0.10961477f, -0.14571957f, 0.26551521f, 0.15072265f,
  -0.26596728f, 0.17619082f, -0.45313370f, 0.04286573f, -0.00740360f, 0.03726345f,
  0.25594807f, -0.24825585f, 0.27480191f, 0.14204963f, -0.02850920f, -0.21099034f,
  -0.72973251f, -0.07652908f, -0.05809552f, 0.15209933f, -0.08302309f, -0.50429851f,
  -0.03123991f, -0.26451269f, -0.01159593f, 0.12191033f, -0.11088533f, 0.07807363f,
  0.19760734f, -0.02424386f, -0.14776739f, 0.03808466f, -0.11488121f, -0.05514745f,
  0.03404926f, 0.26199695f, -0.26182771f, -0.30422837f, 0.02946468f, 0.07514813f,
  -0.26394376f, -0.18785937f, 0.06463555f, 0.03103375f, -0.01292364f, 0.11752202f,
  0.42646205f, -0.19091797f, 0.08303834f, 0.19820610f, -0.11774385f, -0.54005677f,
  0.01334372f, -0.35987669f, -0.15405123f, 0.04997097f, 0.18986344f, 0.08656543f,
  -0.34207013f, -0.25230592f, -0.05214432f, -0.20827259f, -0.35437867f, -0.02981984f,
  -0.25223553f, -1.17591166f, -0.27359217f, 0.16809422f, 0.12998159f, 0.04769407f,
  -0.18373978f, -0.24953732f, 0.00688016f, -0.00623109f, -0.01557614f, 0.16316462f,
  0.06729182f, -0.41589642f, -0.19654985f, -0.16356926f, 0.08913219f, -0.13394172f,
  0.21890074f, 0.10487520f, 0.34231919f, -0.15910918f, -0.36044750f, -0.23768736f,
  -0.26411980f, -0.24922410f, -0.16997564f, -0.08035813f, 0.05764612f, -0.18300490f,
  0.14362453f, -1.31739426f, 0.12635107f, -0.07997360f, 0.03278831f, -0.05635100f,
  -0.09135083f, -0.00250992f, -0.24443805f, 0.10077234f, 0.17841291f, -0.01912688f,
  -0.09731606f, -0.04774779f, -0.18321951f, 0.13268445f, -0.04421580f, -0.27464667f,
  0.12855586f, -0.01400562f, -0.20645799f, -0.14349969f, -0.05239629f, -0.40476009f,
  -0.25310409f, 0.00427606f, 0.01391259f, 0.33803621f, -0.12054654f, -0.06047723f,
  -0.05678794f, 0.07504129f, -0.13495274f, 0.15434700f, 0.12808435f, -0.05278745f,
  -0.02357410f, 0.08320335f, 0.33280948f, 0.23266582f, 0.07038511f, -0.19763553f,
  -0.37834567f, 0.00081371f, 0.14665012f, 0.05046460f, -0.01510812f, -0.00030203f,
  -0.07344460f, -0.13631611f, -0.08581837f, 0.02954872f, 0.08785374f, 0.00249883f,
  0.09911594f, 0.02352311f, -0.04324330f, 0.01717283f, 0.04646909f, 0.01944804f,
  -0.04258336f, -0.14166845f, -0.02867069f, 0.00439495f, 0.08445666f, 0.03048860f,
  0.04031328f, 0.16642524f, -0.14172955f, 0.11342346f, 0.02027793f, 0.06466816f,
  -0.06129735f, -0.05207876f, -0.05462734f, 0.02104914f, 0.14955270f, 0.25965539f,
  -0.24589211f, 0.04586302f, 0.44692770f, -0.07928939f, -0.90616018f, -0.13233852f,
  0.00715405f, 0.08678316f, 0.01777059f, -0.07748760f, 0.04130366f, 0.10485999f,
  0.10370573f, 0.21843386f, 0.25031394f, -0.25230569f, -0.12733734f, 0.01622156f,
  -0.03977444f, 0.09591839f, -0.07187019f, -0.08867025f, 0.04079759f, -0.06999699f,
  -0.27720392f, -0.05102518f, -0.01477915f, 0.04322773f, 0.00776605f, -0.04569890f,
  0.01091985f, -0.19392478f, -0.36840969f, -0.09184847f, 0.23735555f, -0.59177548f,
  -0.29857349f, 0.21902356f, 0.03209550f, -0.97219223f, -0.08347156f, -0.15597121f,
  -0.21399547f, -0.09757372f, 0.03926969f, 0.04154054f, 0.02093227f, -0.04908563f,
  0.06381848f, 0.03682332f, -0.42160177f, -0.26256394f, 0.39825660f, -0.10941743f,
  -0.30745536f, 0.18342879f, -0.03909196f, -0.03817740f, -0.08265658f, -0.04807778f,
  -0.02793685f, -0.08329928f, 0.01778489f, 0.11626162f, 0.24010669f, -0.13589220f,
  -0.01493556f, -0.21445194f, 0.00700699f, 0.16282393f, 0.00075421f, -0.15352260f,
  -0.33752352f, 0.02350248f, -0.18324421f, -0.34657168f, -0.16050397f, -0.16484568f,
  0.02248358f, -0.08322896f, -0.01262576f, 0.12679291f, 0.12781273f, 0.23391952f,
  0.22333796f, -0.27677989f, 0.00352260f, 0.08217900f, 0.14670183f, 0.20467684f,
  -0.04512687f, -0.06695473f, 0.00663957f, 0.00882982f, -0.03983444f, -0.04994469f,
  0.13210548f, -0.03937452f, -0.01303003f, 0.02933441f, 0.14752530f, 0.27550587f,
  0.04615762f, -0.27119392f, -0.16389753f, 0.33923054f, 0.28413299f, 0.10700023f,
  0.01781956f, 0.00118455f, -0.04014827f, -0.03798429f, -0.12995093f, -0.05409776f,
  0.00181924f, -0.36667311f, -0.15518567f, -0.06517512f, -0.07000390f, 0.01012110f,
  0.10195051f, 0.21547771f, -0.14556187f, 0.10730580f, 0.24882846f, 0.01879266f,
  0.20805328f, 0.32661206f, -0.30755073f, -0.57561964f, -0.07889710f, -0.21212858f,
  -0.14068986f, -0.10009255f, 0.03074716f, 0.23598285f, 0.25970122f, 0.18731871f,
  0.16334268f, 0.14229530f, -0.00208690f, -1.10059166f, 0.16531982f, -0.29518065f,
  -0.68925303f, -0.15952772f, 0.00143909f, -0.20045722f, -0.45299155f, -0.18592139f,
  -0.05869571f, -0.21387073f, -0.12025673f, -0.07695947f, 0.00714354f, 0.07239842f,
  0.12836838f, -0.03143817f, 0.00118153f, 0.06928401f, -0.04221105f, 0.00933205f,
  0.09226233f, -0.04262159f, -0.02956553f, 0.13855171f, 0.11636064f, -0.00770354f,
  0.09165731f, -0.09290937f, 0.05944034f, 0.11506567f, 0.01715357f, 0.14037293f,
  0.24845731f, 0.05380996f, 0.00075962f, -0.18441848f, 0.00348797f, -0.04815589f,
  -0.17797676f, 0.11289413f, -0.04369543f, -0.04041776f, 0.17404710f, -0.41231167f,
  -0.69490826f, -0.20568213f, -0.17466097f, -0.08651204f, -0.27054814f, -0.05889166f,
  -0.12787488f, -0.24863258f, 0.05314303f, 0.06112671f, 0.09758103f, -0.08278470f,
  0.01675998f, -0.24793726f, 0.33761290f, 0.03362387f, 0.02001796f, -0.01337586f,
  0.02448173f, -0.09345325f, 0.01498980f, -0.02292890f, 0.02871550f, 0.02874938f,
  0.08759245f, -0.07303794f, -0.16273944f, -0.10645000f, -0.14314084f, -0.13464019f,
  -0.31841427f, 0.29678270f, 0.11983775f, -0.20794456f, -0.25550941f, 0.41224948f,
  0.03665140f, 0.03434100f, 0.09587254f, -0.19895698f, -0.10957251f, -0.01249392f,
  -0.02155242f, -0.07410064f, -0.05304207f, -0.04822594f, -0.00890052f, -0.04329121f,
  -0.14119282f, 0.18191195f, 0.03061777f, -0.02279954f, 0.00377530f, 0.10989620f,
  0.06795192f, 0.02410929f, 0.08088332f, -0.08831049f, -0.02682268f, 0.18437904f,
  0.00355508f, -0.00889019f, 0.17457147f, 0.04916820f, -0.69326419f, -0.23558177f,
  -0.20226689f, 0.06171220f, 0.19087048f, -0.69940603f, 0.00850709f, 0.12104885f,
  0.29529423f, -0.01269024f, -0.82389414f, -0.00257251f, -0.28838697f, -0.23093919f,
  0.67841977f, -0.61029041f, 0.26118618f, 0.17254713f, -0.06370729f, 0.42167765f,
  -0.10519323f, 0.13699836f, 0.19990654f, -0.11346037f, -0.35611701f, 0.19556738f,
  0.12429811f, 0.12236965f, 0.01038274f, 0.11815286f, -0.06124223f, 0.20977859f,
  -0.03253533f, 0.06663723f, 0.07004160f, -0.07185721f, -0.06245013f, -0.15344010f,
  -0.23640813f, -0.32011500f, -0.16482919f, 0.10737692f, 0.08209190f, 0.21237360f,
  0.41618848f, -0.30495840f, -0.19329734f, -0.27065602f, 0.28578565f, 0.30629838f,
  0.00394921f, -0.00467516f, 0.01421629f, 0.07603244f, 0.15739331f, -0.04312411f,
  -0.12433220f, 0.15690523f, 0.14952967f, 0.24705982f, -0.81455344f, -0.04171229f,
  0.07202147f, -0.19230370f, 0.00055127f, -0.13540083f, -0.05716277f, 0.02550791f,
  0.05075509f, -0.00881394f, 0.03822645f, -0.01642146f, 0.01815455f, 0.01785037f,
  -0.12910657f, -0.93841600f, -0.53358912f, -0.10718198f, -0.35329708f, 0.01988643f,
  0.08192435f, -0.07280432f, 0.06733795f, -0.09068043f, -0.14899839f, -0.60288703f,
  -0.10535706f, -0.62283051f, -0.44969046f, -0.04395312f, -0.11123506f, -0.03791659f,
  -0.02383060f, 0.00128519f, 0.08548899f, -0.08446717f, -0.07956696f, -0.01678291f,
  -0.04568251f, 0.00961241f, -0.31059915f, 0.07196784f, -0.08863193f, 0.03636162f,
  -0.30303875f, 0.01442067f, 0.10685757f, -0.01811216f, 0.06258879f, -0.05520534f,
  -0.11226773f, -0.02336146f, 0.06180155f, -0.07529418f, 0.04822423f, -0.04467836f,
  0.03127743f, -0.06059887f, -0.01377672f, -0.14108324f, -0.02758452f, -0.05192155f,
  -0.06161393f, -0.00600156f, 0.04341948f, -0.00416330f, 0.08026911f, 0.06366333f,
  -0.17405531f, -0.25844824f, -0.18652916f, 0.17837206f, 0.12267042f, 0.14524847f,
  0.00721421f, 0.09071079f, 0.10726654f, -0.14606103f, 0.05565013f, 0.07617295f,
  0.07454756f, 0.04234380f, -0.12115908f, -0.18535942f, -0.21045505f, 0.03201795f,
  0.00053044f, 0.03127402f, -0.12721285f, 0.19284169f, 0.08354519f, 0.09192301f,
  0.03669693f, -0.11787860f, -0.01709305f, -0.29403505f, -0.07893033f, -0.03954890f,
  -0.31956160f, 0.41614887f, -0.29233515f, 0.06848637f, 0.04411902f, -0.13771462f,
  -0.36945397f, -0.09479775f, -0.13301468f, -0.35370183f, 0.07267533f, 0.15880947f,
  -0.14732277f, -0.04330672f, -0.14755127f, 0.14733557f, -0.57463592f, -0.81019795f,
  -0.03392674f, 0.20086096f, 0.00041872f, -1.70314538f, -0.07765973f, 0.12062839f,
  -0.06591249f, 0.17144853f, 0.04909378f, 0.33392459f, -0.05907102f, -0.49913236f,
  -0.31644195f, 0.09515601f, 0.26644099f, -0.04931203f, -0.09511868f, 0.03175227f,
  0.14882362f, -0.02820555f, -0.14565796f, -0.00528736f, -0.02669617f, -0.34664780f,
  -0.42701593f, -0.13587844f, 0.44423905f, -0.21938746f, -0.03186063f, -0.16154221f,
  -0.03397525f, -0.16274178f, -0.05674460f, -0.03917049f, 0.09176499f, -0.04274052f,
  0.19818765f, -0.97500086f, 0.10630991f, -0.28865215f, -0.41395515f, 0.17130999f,
  -0.06089548f, 0.26354179f, -0.05177876f, 0.02160667f, 0.00349325f, 0.06024330f,
  0.15966012f, -0.07331071f, -0.00381828f, 0.02240098f, -0.09759682f, 0.19954969f,
  -0.38266146f, 0.18955153f, -0.00604695f, -0.38399577f, 0.33094764f, -0.01346650f,
  0.05993621f, 0.11298054f, -0.01772757f, -0.41235709f, 0.02952387f, 0.05987223f,
  0.05771596f, -0.04735282f, -0.02379012f, -0.06810691f, 0.18877496f, 0.16403285f,
  -0.16651431f, 0.05808504f, 0.14932643f, -0.05299435f, 0.18834856f, 0.08263404f,
  -0.05352609f, 0.06142315f, -0.04516436f, 0.06802163f, -0.09513914f, -0.35446563f,
  0.04628696f, 0.08379839f, -0.08852738f, -0.07668404f, -0.58352876f, 0.11485868f,
  -0.13957104f, -0.01418786f, 0.10515267f, 0.09631040f, -0.03796960f, -0.20204219f,
  -0.07473183f, -0.10117566f, -0.17570658f, 0.02524899f, 0.04671304f, -0.10080373f,
  0.02818433f, -0.24689732f, 0.13419604f, -0.09911960f, -0.02116237f, -0.03330535f,
  -0.20984097f, -0.00596474f, 0.00226535f, -0.15367025f, 0.32860997f, 0.09878495f,
  0.00122576f, 0.06479730f, -0.31193948f, -0.02596886f, -0.08766555f, 0.13365734f,
  0.08159094f, -0.02528684f, 0.01087700f, -2.01324272f, 0.17076522f, -0.28178850f,
  0.17201167f, -1.03569245f, -2.43070292f, 0.05025029f, 0.03747671f, -0.06574403f,
  -1.24621177f, -2.17917371f, 0.04995430f, 0.04621162f, 0.06891561f, -1.60065103f,
  -0.30621734f, 0.04752383f, -0.01928616f, 0.16504644f, -2.55784917f, -2.56829453f,
  -1.15714419f, 0.14092568f, -0.02976712f, 0.03581494f, 0.25348347f, -0.44458500f,
  -0.33289197f, -0.31000552f, 0.00083310f, -0.09349678f, -0.05811903f, 0.06158856f,
  -0.12732318f, 0.40155634f, -2.40943933f, -0.94262099f, -0.32992771f, -0.60395187f,
  -0.06731520f, 0.04508534f, -0.12772055f, 0.10039139f, 0.11700618f, 0.09914516f,
  -0.96178365f, 1.02702928f, 0.01264832f, 0.25235578f, 0.86857039f, -2.21322989f,
  -0.16859657f, -0.02882260f, -0.10497254f, 0.05221967f, -0.99280804f, 0.23057128f,
  0.30106157f, 0.22278279f, -0.99332714f, -1.67414021f, 0.02168256f, -0.18515746f,
  -0.58928639f, 0.23314837f, -0.96152049f, 0.00314393f, -0.03063954f, -0.43969053f,
  -0.44628203f, -0.21988115f, 0.04449434f, 0.11066235f, 0.22569112f, -1.14364350f,
  -1.39982021f, -0.07224052f, -0.05397705f, 0.00750265f, -0.04636186f, -1.26977408f,
  -0.11590126f, -0.38377917f, -0.27759740f, 0.43589032f, -0.25350270f, 0.11398511f,
  -0.01163373f, -0.00377136f, 0.34195665f, -1.15417576f, -0.14862703f, 0.03913334f,
  -0.01647660f, -0.67792165f, -0.15420219f, -0.26908475f, -0.03499470f, -0.35600507f,
  -2.39952159f, -0.96934736f, 0.03706563f, -0.04659568f, -0.10213090f, -0.13058175f,
  -0.27419636f, -0.04573232f, 0.01793970f, 0.08948944f, 0.05269897f, -0.57131571f,
  -0.24275328f, -0.02252057f, 0.10829305f, 0.27212211f, -1.93449676f, 0.40964028f,
  0.11349162f, 0.34355071f, -0.71072227f, -1.37981546f, 0.20144585f, -0.04189072f,
  -0.04117864f, 0.45095026f, 0.86275637f, 0.13904050f, -0.00290799f, 0.04995719f,
  -0.06478239f, -0.78170055f, -0.09437945f, 0.03154914f, -0.00463887f, -0.01283703f,
  -0.91153646f, -0.13468938f, 0.02891728f, 0.04641400f, -0.20931390f, -1.55837941f,
  0.13081002f, 0.16121793f, -0.07204673f, -0.27165565f, -1.14926732f, 0.12195795f,
  -0.04416895f, 0.05278384f, -0.48128462f, -1.54143643f, 0.26869699f, 0.33739266f,
  -0.13857968f, -0.02334537f, -0.27807742f, -0.61391467f, 0.19857748f, -0.05939499f,
  0.04454767f, 0.08677293f, -0.83673984f, 0.23068674f, 0.12035040f, 0.56460726f,
  -0.23850197f, -0.03307149f, 0.14590129f, -0.22747941f, 0.00582194f, -0.24801195f,
  -0.05213483f, -0.00895788f, 0.26120815f, -0.02742131f, 0.21359976f, -0.22579214f,
  0.27554908f, 0.06884041f, -0.39054391f, 0.44244218f, -1.86820483f, 0.04680515f,
  0.44569650f, -0.41931254f, -0.04569584f, 0.04239071f, -0.21884845f, -0.11392274f,
  0.11080766f, -0.35207319f, 0.19596218f, 0.04416615f, -0.12973946f, 0.14040741f,
  0.32581618f, -0.28060779f, 0.30901319f, 0.52835250f, 0.25564757f, -0.29628333f,
  0.22607847f, 0.06470416f, 0.10618658f, -0.13627747f, -0.47906741f, -0.85972071f,
  0.95634174f, 0.27704471f, -0.35202423f, -0.26027146f, 0.16349001f, 0.06954180f,
  -0.00901557f, 0.22203176f, 0.24999529f, 0.21929356f, -0.28575078f, 0.05998752f,
  -0.29317921f, -0.52010876f, 0.41638505f, -0.07078046f, -0.12842782f, -0.21004473f,
  0.10655355f, -0.05605953f, -0.60698557f, 0.21742234f, -0.12411498f, 0.22645465f,
  0.15465641f, 0.04221562f, -0.36266565f, -0.37004933f, 0.11616366f, 0.19191489f,
  -0.19708472f, 0.02733711f, -0.07662239f, -0.15286940f, -0.19726236f, -0.64467937f,
  -0.15623900f, 0.23758058f, -0.66581029f, 0.05452912f, -0.12686339f, -0.03038231f,
  0.36016083f, -0.29464141f, 0.19478209f, 0.04598072f, 0.11966956f, -0.68301469f,
  -1.07354271f, -0.55270708f, 0.02291054f, -0.19720876f, 0.00737453f, -0.46674448f,
  0.08526275f, 0.10726760f, -0.11972753f, 0.04181940f, -0.06178281f, -0.57441783f,
  0.01693620f, -0.24188568f, -0.11925878f, 0.02438064f, 0.13351394f, -0.24769880f,
  0.27881286f, 0.09854121f, -0.10386395f, -0.25766909f, -0.01520576f, -0.06565651f,
  -0.10667993f, -0.25083363f, 0.23486070f, -0.17229819f, 0.24756728f, 0.16335844f,
  0.13592735f, -0.15415038f, 0.02308947f, -0.09038757f, 0.14483516f, -0.44158074f,
  -0.11468817f, -0.49781898f, 0.09682781f, -0.00686385f, 0.02681386f, 0.07143319f,
  -0.18431315f, -0.20093217f, 0.11967567f, -0.37776610f, -0.30344418f, 0.26508683f,
  -0.00632178f, -0.59843951f, -0.14947197f, -0.23275979f, 0.03129322f, 0.00909474f,
  -0.58395439f, -0.38247037f, -0.41271454f, -0.11348221f, 0.16444738f, -0.01491431f,
  0.22479823f, -0.06612000f, -0.00425522f, -0.11897823f, 0.04318028f, -0.13509545f,
  -0.14093867f, -0.08158733f, -0.12100946f, 0.07169261f, 0.08981337f, 0.04180192f,
  -0.04466335f, 0.08516081f, 0.04844983f, -0.08764134f, 0.04692946f, -0.06638397f,
  0.17358929f, -0.03080116f, -0.07299681f, 0.13386700f, -0.08286566f, -0.16831972f,
  0.20705672f, -0.05549021f, 0.17423368f, -0.05184636f, -0.00197982f, 0.13962683f,
  0.17712489f, 0.10529551f, 0.12296019f, 0.02865197f, -0.06462426f, 0.09235027f,
  -0.25291342f, 0.19795346f, 0.29536939f, -0.16891544f, 0.18278851f, 0.45285097f,
  0.09461410f, 0.08703399f, -0.19113731f, -0.19644621f, 0.10666397f, 0.04453834f,
  -0.01412935f, -0.00460974f, 0.08095906f, -0.64232016f, -0.61359596f, 0.03715121f,
  -0.09454159f, 0.16930310f, 0.02779091f, 0.07980745f, 0.04394120f, -0.20969094f,
  -0.09080295f, -0.91833341f, 0.12019711f, -0.50619012f, 0.10652513f, 0.44597530f,
  -0.13486478f, -0.03543632f, 0.18648116f, 0.06595954f, -0.37049991f, 0.04299247f,
  -0.08139896f, 0.02462924f, 0.04636590f, 0.02231611f, -0.56035960f, -0.22943047f,
  0.11532723f, -0.16018553f, 0.30475709f, -1.17636085f, -0.75518125f, -0.03519573f,
  -0.16616055f, -0.38942128f, -0.04740661f, 0.06155355f, 0.00118700f, -0.12177611f,
  0.33681989f, -0.06435175f, -0.19863586f, 0.08705379f, -0.05336690f, -0.05602405f,
  0.06366386f, -0.12200808f, -0.11949134f, -0.25266606f, 0.09065665f, 0.40350592f,
  0.09222218f, 0.03252002f, 0.03515036f, -0.23557761f, -0.20472860f, 0.09488940f,
  0.04523086f, -0.09589858f, 0.04345935f, -0.22655061f, 0.00139041f, -0.03557262f,
  0.02207505f, 0.21168689f, -0.08346431f, 0.03460869f, -0.12295303f, 0.09743599f,
  0.52362972f, -0.14342616f, -0.14965472f, 0.33482814f, 0.07682848f, 0.21714552f,
  -0.15808243f, -0.13907894f, 0.10344330f, -0.11143464f, -0.18266462f, 0.00121210f,
  -0.03130020f, -0.00293144f, 0.06857744f, -0.03897724f, -0.07822017f, -0.11749980f,
  0.00397184f, -0.02589141f, -0.05040287f, -0.18907076f, -0.12546809f, 0.01935470f,
  -0.05980853f, 0.28466555f, 0.04362432f, -0.09397338f, -0.06235919f, -0.04242009f,
  -0.18752404f, -0.46628526f, -0.08780931f, -0.04442808f, 0.40982735f, 0.58789349f,
  -0.14039482f, -0.07055499f, 0.10362712f, 0.11619458f, 0.18223105f, 0.04668024f,
  0.01530653f, -0.08762374f, -0.01638694f, -0.01033321f, 0.11023867f, 0.04445303f,
  -0.04915203f, 0.04184190f, -0.08458752f, -0.08534324f, -0.09523012f, -0.19969633f,
  0.17735909f, 0.44611573f, -0.07746635f, 0.02411849f, 0.09324766f, 0.04331074f,
  -0.08238883f, -0.15060675f, -0.00265111f, 0.01004892f, 0.02217466f, -0.03901969f,
  -0.02314166f, 0.14620419f, 0.01243330f, -0.12849262f, -0.01796028f, -0.18176970f,
  -0.13403052f, -0.03703582f, -0.15717128f, -0.13038793f, 0.02847674f, -0.01674358f,
  0.03688126f, -0.14885394f, -0.04122685f, 0.01343375f, 0.03335360f, 0.03746593f,
  -0.02688820f, 0.04107893f, -0.04649238f, 0.15041140f, 0.02653794f, -0.14351678f,
  0.07630081f, 0.05472426f, -0.01077304f, 0.01383453f, 0.03795657f, 0.10449171f,
  0.20826897f, 0.30726427f, 0.06948569f, 0.03296093f, -0.07804940f, -0.12343480f,
  -0.03947086f, -0.06201966f, -0.06884774f, -0.17824318f, -0.17083153f, -0.08068634f,
  0.03418398f, -0.06563462f, -0.08899136f, 0.09240559f, 0.08383692f, 0.02916665f,
  0.09367104f, 0.08799356f, -0.19037376f, -0.20616364f, -0.09704575f, -0.17330189f,
  0.00714547f, -0.00843084f, -0.08623633f, -0.04333461f, 0.02934149f, -0.19454858f,
  0.12958930f, 0.23430504f, 0.08112213f, 0.10578743f, 0.20567380f, -0.27436197f,
  0.36086649f, 0.20259720f, -0.25550705f, 0.16042046f, 0.02401687f, 0.10673272f,
  0.07159793f, -0.04313832f, -0.07918919f, -0.16035941f, -0.07125945f, -0.04801601f,
  -0.00232090f, 0.08598494f, -0.59998095f, 0.14837222f, -0.09512234f, -0.19944140f,
  0.01932321f, 0.02127173f, -0.04873940f, 0.06533808f, -0.20115919f, -0.08333857f,
  0.06266562f, 0.15878855f, -0.05128666f, -0.07938087f, 0.02887312f, 0.27467984f,
  0.25140524f, 0.00625102f, 0.09927841f, 0.18433864f, -0.25427043f, 0.08615334f,
  0.17408510f, -0.25332436f, -0.15424162f, 0.27698660f, 0.15622741f, 0.03630164f,
  0.03528457f, -0.22795074f, -0.87707144f, -0.27541941f, 0.05679664f, -0.17097843f,
  0.07490017f, -1.03624582f, -0.19352010f, 0.01396627f, 0.12170684f, 0.37832117f,
  0.15166193f, 0.07523670f, -0.17648831f, -0.12212309f, -0.25408450f, -0.04541732f,
  -0.10587333f, -0.05173722f, -0.07998417f, 0.06100389f, 0.04700626f, 0.13990299f,
  0.08996113f, -0.05233421f, -0.26336309f, 0.07353607f, 0.04217321f, -0.05595846f,
  0.00242092f, 0.11619746f, -0.19383058f, -0.13365258f, -0.17509496f, 0.01515690f,
  0.01150815f, 0.10884979f, 0.14323923f, -0.02020112f, -0.17748703f, -0.34582838f,
  0.19472720f, 0.02414664f, 0.03565751f, 0.16058154f, 0.23866527f, 0.06496409f,
  0.00310981f, 0.04207654f, 0.06553351f, 0.05209474f, -0.02293787f, -0.00771448f,
  -0.00198087f, 0.07731251f, -0.07743323f, 0.14126977f, 0.07001701f, -0.00334482f,
  -0.05360295f, -0.02067101f, 0.27074713f, 0.22470261f, 0.03346750f, -0.06425949f,
  0.00023598f, 0.09649307f, -0.09089077f, -0.06202447f, -0.10340182f, -0.00373332f,
  -0.33009589f, 0.15708031f, 0.39929166f, -0.18365425f, -0.09330398f, 0.04662726f,
  0.07844353f, 0.09300680f, 0.02532766f, -0.02623126f, 0.03631611f, 0.05293338f,
  0.04808037f, -0.02653864f, 0.03698741f, 0.04737551f, 0.09089335f, 0.06024201f,
  0.09586746f, 0.15054709f, 0.20681851f, 0.04239400f, 0.03318698f, 0.05580943f,
  0.08476071f, -0.00358555f, -0.03661694f, 0.04647760f, 0.03404653f, -0.04743698f,
  0.03879149f, -0.09026945f, 0.02859107f, -0.07094531f, 0.02787700f, -0.02673810f,
  0.04145361f, 0.34466407f, 0.16972847f, 0.24518020f, -0.11600817f, 0.04953919f,
  0.05436709f, -0.22159435f, -0.13571995f, -0.07985680f, -0.11604779f, 0.52080250f,
  0.05129534f, -0.67804247f, 0.40371591f, 0.13599899f, 0.15730876f, 0.14272523f,
  0.17301771f, 0.07053765f, 0.10941930f, -0.09251620f, -0.07186703f, -0.09253463f,
  -0.58555245f, 0.00037927f, 0.04181452f, -0.31323165f, -0.43551618f, -0.15633437f,
  -0.08933414f, 0.13422166f, -0.00611984f, -0.05190149f, 0.00249490f, 0.08589007f,
  -0.04283424f, -0.05640118f, -0.10446007f, -0.12004221f, -0.00098664f, -0.02092223f,
  -0.12276477f, -0.16319928f, -0.30536786f, 0.05231434f, 0.03696653f, 0.05807032f,
  -0.04985510f, 0.01499804f, 0.10363440f, 0.11797037f, 0.12358282f, 0.10553666f,
  -0.38624492f, -0.10767791f, 0.30824783f, -0.05441295f, -0.29050225f, -0.14077330f,
  -0.06555038f, -0.07731269f, -0.40634146f, -0.61704707f, -0.32194030f, -0.14462665f,
  -0.05685198f, -0.10763235f, -0.08659329f, 0.18390983f, 0.03284239f, 0.03493125f,
  0.10022171f, 0.11971562f, -0.01274004f, -0.05578659f, 0.02527050f, -0.23291425f,
  -0.31448209f, -0.26319242f, -0.15778917f, -0.19725794f, -0.11582839f, -0.31562743f,
  0.11938456f, 0.02742024f, 0.08163014f, -0.07307079f, -0.02829184f, -0.04150470f,
  -0.22785094f, -0.10479359f, -0.10283069f, -0.04254036f, 0.02873935f, 0.03605492f,
  -0.03658109f, -0.03288523f, -0.10088514f, -0.15993629f, -0.05511669f, -0.09549716f,
  -0.22368927f, -0.15672481f, 0.34685409f, 0.04199243f, -0.25821534f, -0.05745616f,
  -0.29564208f, -0.02856049f, 0.01799708f, 0.13346510f, 0.05758372f, -0.13417557f,
  -0.01004090f, -0.21834821f, -0.02447149f, 0.22899739f, -0.02172913f, 0.29359332f,
  -0.00014989f, 0.12743092f, 0.10714578f, 0.16446725f, 0.06102968f, -0.28847322f,
  -0.04758217f, 0.03207307f, 0.03946939f, -0.35590720f, -0.18633017f, 0.07528450f,
  0.07791016f, -0.03883884f, -0.22488087f, -0.14391980f, -0.06377668f, -0.09671684f,
  -0.18723623f, -0.49332398f, -0.22402620f, -0.09785923f, 0.04655534f, 0.28554729f,
  -0.07642414f, -0.10022601f, 0.05262999f, 0.02572922f, -0.02605689f, 0.21373385f,
  0.22045407f, 0.00667591f, 0.09510665f, -0.06904516f, -0.02435249f, 0.19546512f,
  0.27607867f, -0.18227723f, 0.25751373f, -0.20352417f, -0.00566344f, -0.02452957f,
  0.13953598f, 0.07512080f, -0.00294869f, -0.08928052f, -0.01202213f, -0.07250481f,
  -0.09199918f, 0.09786170f, 0.01734219f, 0.03922850f, -0.06338513f, -0.15387952f,
  0.30247560f, -0.10573912f, 0.10186882f, -0.01667682f, 0.25932679f, 0.15680993f,
  0.10559354f, 0.12470582f, -0.00236825f, -0.13830325f, -0.07368285f, 0.01121450f,
  -0.05896750f, 0.12844189f, 0.05704063f, 0.21115273f, -0.01186038f, 0.00557817f,
  0.02007719f, 0.08465771f, 0.04264386f, 0.08918663f, -0.28711757f, 0.05327192f,
  0.11663984f, -0.13959056f, -0.07703841f, 0.04761555f, -0.12466232f, 0.27037916f,
  -0.12661722f, -0.00641045f, -0.08452564f, -0.10160621f, -0.14416206f, -0.02253173f,
  -0.08774522f, 0.08093825f, -0.12664367f, 0.00149841f, 0.20326349f, 0.02863882f,
  0.04774517f, -0.02976592f, 0.18016976f, -0.22528042f, -0.05831026f, -0.09349586f,
  -0.06489062f, -0.04842408f, -0.12513758f, -0.08614179f, -0.00865524f, -0.03993071f,
  -0.09130788f, -0.33608237f, -0.08858663f, -0.00243944f, 0.06031546f, 0.21554162f,
  -0.02099695f, -0.04159403f, -0.24200542f, 0.10298890f, 0.31508702f, -0.14981791f,
  0.01072849f, 0.03802603f, -0.15178305f, 0.04761245f, -0.43284193f, -0.10390314f,
  -0.06528381f, 0.12329844f, 0.35142833f, -0.17201076f, -0.00225627f, 0.03763852f,
  0.06398686f, -0.03687176f, 0.32828623f, 0.06334300f, -0.18032779f, 0.07204811f,
  0.02048288f, -0.77326417f, -0.21042767f, -0.02632584f, -0.11908067f, -0.00526134f,
  -0.41305298f, -0.42014581f, -0.00987209f, -0.03083099f, -0.08951243f, -0.33481184f,
  -0.07668047f, -0.12680659f, 0.06382063f, 0.34804976f, 0.29880339f, 0.17136580f,
  0.06697426f, -0.29901478f, -0.20337211f, -0.30626050f, -0.02118639f, 0.26210687f,
  -0.05862731f, 0.35506123f, 0.27888221f, 0.22320628f, 0.06494986f, 0.07136888f,
  0.20394936f, 0.02458914f, 0.02134306f, -0.12270208f, -0.01978032f, -0.07040559f,
  0.20208289f, -0.21222824f, -0.22817536f, -0.04288847f, 0.07349923f, 0.02015325f,
  -0.00891272f, 0.07384548f, 0.10926049f, -0.01124811f, -0.13659029f, -0.03573529f,
  -0.17836447f, 0.06410658f, 0.02936879f, -0.18829302f, -0.13221571f, 0.03226764f,
  -0.02805454f, 0.05646675f, 0.16541438f, -0.02155236f, 0.07028726f, -0.13834408f,
  -0.41751328f, 0.14110228f, -0.04351787f, -0.05684437f, -0.14624387f, -0.38125655f,
  -0.09617682f, 0.07961217f, -0.18294396f, -0.07928790f, 0.04896191f, -0.08881504f,
  -0.10241523f, -0.02846021f, 0.01120170f, 0.11228391f, -0.07569869f, -0.15078917f,
  0.14069526f, 0.15754195f, 0.41397175f, -0.57385147f, -0.32388026f, -0.30015776f,
  -0.02830377f, 0.01234419f, 0.01657867f, -0.06643835f, 0.08807681f, 0.17276183f,
  -0.03677524f, -0.48372331f, -0.03192087f, -0.02974688f, 0.01594822f, 0.10427959f,
  -0.10632029f, -0.10034629f, 0.10385440f, -0.00392982f, 0.07276227f, 0.08246081f,
  0.00293493f, 0.07614844f, -0.17334343f, -0.19396010f, -0.19598457f, -0.14291726f,
  -0.01663381f, -0.20359993f, 0.24611047f, -0.16544244f, 0.03212936f, -0.15765178f,
  0.01170097f, 0.14200716f, 0.07984379f, -0.13457079f, -0.01401082f, 0.06825171f,
  -0.17113657f, 0.13612300f, 0.22794919f, -0.00175030f, -0.08804640f, 0.00940483f,
  -0.15721525f, -0.05530838f, 0.13328977f, 0.16734877f, 0.12430885f, 0.09128927f,
  0.13242409f, 0.06082262f, 0.05246231f, 0.15249364f, -0.13955212f, -0.14101194f,
  -0.13691865f, -0.06811035f, -0.38207945f, 0.03902305f, 0.02270251f, -0.24697819f,
  0.07721528f, -0.67984319f, 0.16079131f, 0.09638531f, -0.25572580f, -1.02465653f,
  -1.18482900f, 0.10350640f, 0.04500966f, -0.25926837f, -0.44182554f, -1.62026691f,
  -0.05528931f, 0.04276021f, 0.12942146f, -0.75058937f, -0.21815395f, -0.37436849f,
  0.05382285f, 0.13187575f, -0.81714720f, -0.20988262f, 0.62929648f, 0.17207189f,
  -0.32210082f, -1.71080649f, -1.48070371f, 0.43010980f, -0.32886681f, -0.29152545f,
  0.02903440f, -0.72417915f, 0.32761177f, -0.14476530f, -0.07145825f, 0.26957142f,
  -1.01533997f, 1.30867219f, 0.36085537f, -0.57104516f, -0.06512662f, -0.22730492f,
  -0.13640754f, -0.04579540f, -0.03056194f, 0.17813227f, -0.63419390f, -0.92250204f,
  0.00459462f, -0.24923137f, 0.81209910f, -1.01108634f, 0.03504424f, 0.14337963f,
  0.05670354f, 0.06062204f, -0.47178003f, -0.26508310f, -0.00015158f, 0.15937692f,
  -0.84228420f, -1.30229867f, 0.02478744f, -0.25052378f, -0.89032191f, -0.13955508f,
  -1.18885529f, 0.02516365f, 0.02741265f, 0.17591444f, -1.69924080f, -2.01118398f,
  0.14881086f, 0.36306906f, 0.21163888f, 0.09384868f, -1.52090967f, -0.13263687f,
  -0.18153673f, 0.02474789f, -0.05684041f, -1.11531734f, 0.01873044f, -0.20824303f,
  -0.38400975f, 0.33877069f, -1.63561690f, -0.08885305f, 0.04695829f, -0.00420784f,
  -0.02408665f, -0.70762974f, 0.33526051f, 0.39334980f, 0.52485543f, -1.28038514f,
  -1.76996493f, 0.04754458f, -0.23117317f, -0.19706827f, -1.16722846f, -0.75423712f,
  -0.56853890f, 0.08483426f, -0.28841105f, -0.35565430f, -0.26025587f, -0.06467309f,
  0.08371319f, 0.03159100f, -0.41028863f, 0.26151952f, 0.23730709f, 0.21144022f,
  0.70455265f, 0.39278892f, 0.13673820f, -0.25875559f, 0.44727537f, -0.03928519f,
  -0.20805316f, -0.39513689f, -0.15648907f, 0.01819685f, -0.12795147f, 0.30180681f,
  -1.15157080f, 0.47582307f, 0.09076396f, 0.45627397f, 0.35868913f, -1.78739059f,
  -0.98168492f, -0.49728081f, -0.60613984f, -0.61867565f, -0.86090684f, 0.09748112f,
  0.10003428f, 0.15894264f, -0.27812368f, -0.85547924f, 0.69091624f, 0.09972256f,
  0.40361354f, 0.43745953f, -1.30733645f, -0.18596041f, -0.18511096f, -0.12178668f,
  -0.24051717f, -0.91651821f, 0.03945069f, 0.16646324f, 0.41115409f, 0.04557397f,
  0.03271236f, 0.78070778f, 0.31936163f, 0.03420024f, 0.15089761f, 0.19659102f,
  0.39633542f, 0.15279648f, -0.01411037f, 0.06222609f, -0.18444431f, 0.13018106f,
  0.12382266f, -0.14242505f, 0.18206824f, 0.31745073f, -0.12360913f, -0.05410790f,
  0.16093449f, -0.05771834f, -0.23095271f, 0.33198994f, 0.19891964f, 0.03275315f,
  0.14124539f, 0.02710675f, -0.12870334f, -0.06216262f, -0.07857866f, -0.01290863f,
  -0.13699058f, 0.11431288f, 0.08214734f, 0.04267158f, -0.08534005f, -0.27672827f,
  -0.85479820f, -0.30781224f, -0.55280972f, -0.32207698f, -0.29864570f, -0.12806515f,
  0.02106941f, 0.00691841f, 0.02827517f, -0.05135618f, -0.68273604f, -0.03326082f,
  -0.09947390f, -0.16913985f, 0.19303498f, -0.08627580f, 0.05025713f, -0.13323066f,
  0.09668329f, -0.03756410f, -0.30030400f, -0.19398795f, 0.17712837f, -0.11361855f,
  -0.36980510f, 0.25262272f, 0.08735968f, -0.07652543f, -0.18363005f, -0.36428258f,
  0.22163638f, 0.09093583f, 0.10046402f, 0.03655371f, -0.14746550f, -0.18967415f,
  0.07183424f, -0.07179958f, -0.11198405f, -0.07549576f, 0.01249726f, -0.11914239f,
  -0.03598893f, -0.01378902f, -0.11819303f, -0.51749080f, -0.34560201f, 0.24438058f,
  0.20705368f, 0.33058250f, -0.26001239f, -0.07969955f, -0.09203243f, -0.13573341f,
  0.06125532f, -0.15259965f, 0.20041865f, -0.06036516f, -0.10990422f, 0.21478795f,
  0.31421030f, 0.25006217f, 0.03832669f, -0.12973589f, -0.68075621f, 0.06629420f,
  0.01308004f, -0.06800534f, -0.03450501f, -0.09701889f, -0.33255985f, 0.13456254f,
  0.01777807f, 0.03436444f, 0.27179030f, -0.17324094f, -0.06592301f, -0.09943873f,
  0.01662391f, 0.11546890f, -0.07409236f, 0.11256204f, -0.16602744f, 0.06515456f,
  0.11759873f, -0.18404922f, -0.00185992f, 0.02296195f, 0.01260269f, -0.01722760f,
  -0.25923946f, -0.14886701f, 0.04457770f, 0.00737430f, 0.00462743f, 0.27441737f,
  -0.04380211f, -0.14404333f, 0.22343484f, -0.64086932f, -0.40593359f, -0.01942710f,
  -0.00936034f, -0.04185924f, -0.02206781f, -0.45888487f, -0.15856291f, -0.02325239f,
  -0.01997437f, 0.40349483f, 0.09833832f, -0.01039985f, -0.21764578f, -0.36384162f,
  -0.25998539f, 0.04557205f, -0.00088551f, 0.23138630f, 0.03745980f, 0.07274474f,
  -0.46622732f, -0.41416401f, -0.39324814f, 0.28262687f, 0.29274529f, -0.56344891f,
  -0.39535463f, 0.39688951f, -0.14157228f, -0.05681391f, -0.73012298f, -0.40101495f,
  0.34110802f, 0.00931426f, 0.27136356f, -0.95230234f, -0.55528694f, -0.71918708f,
  0.28140131f, 0.83431119f, -0.19616210f, -1.01493323f, 0.31604671f, -0.28698698f,
  -0.95965159f, -0.26040569f, 0.01448417f, -0.06431893f, -0.31385863f, -0.26702636f,
  -1.35338414f, -0.48108751f, 0.30617946f, 0.11586245f, 0.34007764f, -0.71895450f,
  -0.56921321f, 0.39196867f, -0.13979335f, -0.49974361f, -0.41321295f, -0.31134152f,
  0.17391542f, 0.19950850f, 0.16019207f, -0.19092925f, -0.72971100f, -0.42630929f,
  -0.00019503f, 0.38960585f, -0.39516610f, -0.36639783f, 0.02338539f, 0.14193684f,
  -0.23386538f, -0.14048153f, -0.49633017f, -0.09175216f, -0.06617265f, -0.30162078f,
  -0.13049527f, -0.97150654f, -0.10415218f, -0.30838549f, -0.04815776f, -0.39764318f,
  -0.84468895f, -0.22591493f, -0.59699023f, -0.40369886f, -0.69780868f, -0.65056574f,
  0.04813192f, -0.18128872f, 0.47637090f, -0.52760333f, -0.02512833f, -0.39842150f,
  -0.67265052f, -0.00323352f, -0.58239180f, -0.87651199f, 0.41095325f, -0.03060792f,
  -0.39217493f, -0.84507114f, -0.49757302f, -0.66577494f, -0.45984542f, -0.05009729f,
  -0.30269507f, -0.59045219f, 0.17209528f, -0.98546004f, 0.14525655f, 0.01190146f,
  -0.10908672f, 0.33629683f, 0.63288933f, 0.57031882f, -0.47161922f, -0.72997183f,
  -0.97598159f, 0.25993729f, 0.91955984f, -0.45799083f, -0.28578767f, -0.46342266f,
  0.31083015f, 0.53357887f, -0.38575551f, -0.22893304f, -0.57232755f, -1.29524302f,
  0.56854123f, -0.16853996f, -0.67119116f, -0.47782427f, 0.19849053f, 0.06342100f,
  -0.13207623f, -0.27021861f, -0.03302601f, -0.22652523f, 0.03125352f, -0.55850285f,
  -0.41735053f, -0.09266141f, 0.11679734f, 0.10219789f, -0.69179732f, -0.34956774f,
  0.33000723f, -0.07396519f, -0.27141905f, 0.01421945f, -0.37332237f, -0.03414288f,
  -0.04815755f, -0.25733617f, -0.61507320f, -0.32032993f, 0.23921818f, -0.76306337f,
  -0.91239554f, -1.05040860f, -1.10077596f, 0.23917799f, 0.04871792f, 0.10816948f,
  0.06695863f, 0.07976518f, 0.49662933f, -0.09605620f, -0.42526352f, 0.03730418f,
  -0.15432139f, -0.31146127f, -0.22058344f, -0.51326793f, -0.86581212f, -0.30305257f,
  0.57188565f, 0.02416732f, -0.59674531f, -0.58375067f, -1.11883783f, 0.18576452f,
  -0.36740804f, -0.43971369f, -0.10598221f, -1.45125031f, -0.24603076f, -0.11805421f,
  -0.00308845f, -0.09096991f, -0.36005884f, -0.22757682f, 0.21981612f, 0.30915239f,
  -0.06415768f, -0.04272587f, 0.21447951f, 0.02364098f, -0.55809093f, 0.20704250f,
  -0.20708618f, -0.38575271f, 0.13246527f, 0.61225379f, -1.71203458f, 0.27461937f,
  0.01101167f, -0.32967404f, -0.29752508f, -0.21094349f, -0.05923055f, 0.41960305f,
  -0.15669775f, -1.16996157f, -0.17902735f, 0.23978546f, -0.06511899f, -0.04712648f,
  -0.00183359f, -0.23604877f, -0.03034766f, -0.35509127f, 0.10376178f, 0.05173353f,
  -0.23338842f, -1.22327137f, 0.25785741f, -0.25514081f, -0.71104890f, -0.28886107f,
  -0.71509504f, -0.51966435f, -0.06736551f, 0.34382203f, 0.02172205f, -0.89595550f,
  0.13669099f, 0.08702665f, 0.24535859f, -1.31096303f, -1.39305735f, 0.05318389f,
  0.20277490f, 0.06406364f, -0.85535944f, -0.06855012f, -0.44591185f, -0.12780660f,
  0.26419014f, -1.85766220f, -1.55439019f, -0.07433353f, 0.28247416f, 0.29207134f,
  0.54901278f, 0.14974028f, -0.60503811f, 0.01338969f, 1.02248502f, -0.64007068f,
  -0.85327834f, -0.47859728f, 0.22229157f, 0.55253893f, -0.33457544f, -1.22265446f,
  0.27047601f, 0.16389507f, -0.43974173f, 0.18471797f, -0.21714747f, -0.21134934f,
  0.11600821f, 0.44556901f, -0.41370466f, 0.17212321f, 0.30311671f, 0.13919502f,
  -0.25673836f, -1.07920623f, 0.21539074f, 0.32638896f, -0.03858864f, -0.40903705f,
  -0.01190979f, -0.24641435f, -0.03078584f, 0.08971717f, 0.30481216f, -0.80015260f,
  0.06923141f, 0.16870923f, 0.04016852f, -0.28885925f, 0.01605592f, -1.28992140f,
  0.04861417f, 0.06740721f, -0.07366624f, -0.00222458f, -0.09944130f, -0.15732639f,
  0.44137275f, 0.75147343f, 0.03321698f, -0.76959181f, 0.09194469f, -0.12030477f,
  0.03608509f, -0.22199339f, -0.55253816f, 0.03822917f, -0.23649530f, -0.04149925f,
  -1.37101185f, -1.52866054f, -0.29907861f, -0.20642307f, 0.25225845f, 0.14877036f,
  -0.83372802f, -0.01934576f, -0.14674269f, -0.23470359f, -0.37960061f, -0.88423777f,
  -0.13169509f, -0.53431582f, -0.42574015f, -1.07576418f, -2.39726090f, 0.85120845f,
  -0.24313906f, -0.71184933f, -0.19157903f, 0.10885297f, 0.31959224f, 0.39327049f,
  0.24725881f, 0.14692847f, 0.12562099f, 0.07097293f, 0.14139135f, 0.05698569f,
  0.20889033f, 0.08803400f, -0.01285092f, -0.09977695f, -0.08699995f, 0.15728045f,
  -0.06783734f, 0.20067190f, 0.23036790f, -0.02826793f, -0.20542502f, 0.05473166f,
  0.10311708f, 0.06052888f, -0.16016804f, 0.20050853f, 0.07056031f, -0.03150063f,
  0.10718942f, 0.29212561f, 0.21555938f, -0.01259058f, 0.00908182f, 0.16162926f,
  -0.10647679f, -0.18952611f, -0.26883164f, -0.08789474f, 0.12714542f, -0.06699315f,
  -0.06901932f, 0.44860378f, 0.10207488f, 0.01430198f, -0.33339924f, -0.21229309f,
  -0.72054732f, -0.01147739f, -0.03514160f, -0.98535216f, -0.66676027f, 0.05829964f,
  0.14592846f, -0.08032656f, 0.01812709f, 0.02002511f, -0.03223209f, -0.13480297f,
  -0.12972610f, -0.06767514f, -0.12847325f, -0.01267219f, -0.05464488f, -0.08192224f,
  0.13629375f, 0.00514600f, -0.04674480f, -0.13267629f, -0.00446599f, 0.01231071f,
  0.12480542f, -0.15239108f, 0.14361471f, 0.16292907f, -0.39363301f, 0.10025260f,
  0.02823255f, 0.11473840f, 0.05188833f, 0.02063420f, -0.05749886f, 0.01704566f,
  -0.19948864f, 0.02929179f, 0.40100589f, -0.68492240f, -0.41368634f, -0.36727804f,
  -0.22113439f, 0.07325216f, -0.34305602f, -0.23018984f, 0.11270094f, -0.03263451f,
  0.01170957f, 0.06509484f, 0.06272096f, 0.01008544f, -0.04346754f, 0.21889374f,
  -0.06757301f, 0.05310161f, -0.12864222f, -0.11423533f, 0.07986545f, 0.40514815f,
  0.30550504f, 0.38434368f, -0.26198938f, -0.54774541f, -0.05738226f, 0.11958684f,
  0.22039485f, -0.30253452f, -0.18115239f, -0.06209003f, -0.09845044f, 0.08299109f,
  -0.17596418f, 0.07045561f, 0.06406347f, 0.19389118f, 0.04484628f, -0.03991748f,
  -0.28020266f, 0.08934682f, 0.00342417f, 0.02349604f, 0.17469962f, 0.25167173f,
  0.02682574f, -0.19891357f, -0.08839403f, 0.03224656f, -0.07868381f, 0.12974599f,
  -0.07593312f, 0.02147878f, 0.10685152f, 0.07810572f, -0.14212139f, -0.11840668f,
  -0.10267077f, -0.12444846f, -0.28412199f, 0.03385539f, -0.07463582f, 0.16800155f,
  0.13209735f, 0.03652837f, 0.14986648f, 0.03937223f, -0.03720015f, -0.03855005f,
  -0.06375412f, -0.09694853f, -0.15481178f, 0.02241087f, 0.04335270f, -0.23061974f,
  -0.03486761f, 0.01435678f, 0.03953673f, 0.01867269f, -0.03686370f, 0.03309175f,
  0.11232001f, 0.09718738f, 0.02508505f, 0.11566487f, -0.20388402f, -0.12279152f,
  -0.00199066f, -0.06682138f, 0.09053910f, -0.01354654f, -0.09803265f, -0.12108574f,
  -0.13765317f, -0.04153194f, 0.12029212f, 0.15999131f, 0.01430830f, 0.03657937f,
  0.06623738f, -0.02525768f, 0.05123163f, 0.00397215f, 0.10244795f, 0.05934647f,
  -0.09247240f, -0.02810837f, 0.01073191f, -0.00492269f, -0.02498449f, 0.16780880f,
  0.19817577f, 0.06991716f, 0.15187111f, 0.20820576f, 0.17620380f, 0.18656699f,
  -0.00537885f, -0.09050513f, -0.04580938f, 0.12297903f, -0.19432499f, 0.03933981f,
  -0.11127841f, 0.09741661f, 0.04678451f, -0.05781265f, -0.04155798f, -0.04761486f,
  -0.04726801f, 0.04818231f, 0.01986235f, 0.04460448f, 0.04000514f, 0.00081541f,
  -0.01498153f, -0.13547269f, -0.18966222f, -0.17089586f, -0.19235931f, 0.08371601f,
  0.18214409f, 0.10010683f, 0.12987018f, 0.07973721f, 0.17096554f, 0.13966700f,
  0.05577198f, 0.10271912f, -0.04066991f, -0.03918929f, 0.08228875f, 0.03426284f,
  0.05329189f, -0.05188154f, 0.03486248f, 0.09520143f, 0.04663879f, 0.04441317f,
  0.13161695f, 0.02893559f, -0.00456387f, -0.04333104f, 0.02978208f, 0.02001393f,
  -0.15980542f, -0.08567882f, -0.09887829f, -0.28927389f, -0.17138746f, -0.12403866f,
  -0.10047110f, -0.16835734f, -0.14853181f, 0.09702372f, 0.13293195f, -0.07378452f,
  0.04701063f, -0.03135847f, 0.02674392f, 0.05663807f, -0.02745086f, -0.02763457f,
  0.03517270f, 0.10937057f, -0.27424195f, -0.11874904f, -0.14722224f, -0.06134974f,
  0.03609479f, 0.07004100f, -0.02357120f, 0.03410194f, 0.03108159f, 0.14780754f,
  -0.15856858f, -0.10852566f, 0.07886893f, -0.06062463f, -0.10927909f, -0.11534600f,
  -0.10591407f, -0.11093913f, -0.18834186f, -0.14615747f, -0.08939269f, 0.13622168f,
  -0.10523248f, 0.16450673f, 0.29131845f, -0.24584073f, -0.12099651f, -0.04202874f,
  -0.07610226f, 0.04486094f, -0.22159500f, -0.30827063f, -0.06758042f, 0.08689838f,
  0.11946999f, 0.07066204f, 0.11963238f, 0.02177969f, 0.17978622f, 0.30442017f,
  -0.12762663f, -0.11367989f, 0.09360795f, 0.05178089f, 0.01849766f, 0.13176613f,
  0.07326099f, 0.00255616f, 0.06408262f, -0.00331645f, -0.01097104f, 0.03594946f,
  0.06563806f, -0.22028299f, -0.03940901f, -0.63788748f, -0.12949315f, 0.07739217f,
  0.15003365f, 0.20887388f, 0.09326912f, 0.05492400f, 0.37641239f, -0.30518711f,
  -0.95832640f, -0.07852068f, -0.05036566f, 0.10352322f, -0.01182459f, 0.05624111f,
  0.08891149f, 0.09928070f, 0.03713702f, -0.06761093f, 0.37781176f, -0.00315507f,
  0.16442427f, 0.10026860f, 0.05400484f, 0.07340410f, 0.06286137f, 0.07296785f,
  0.08712190f, 0.02097268f, 0.03752625f, -0.01211000f, 0.17929409f, 0.13512273f,
  0.08538521f, 0.13568123f, 0.33245790f, 0.12485914f, 0.15012670f, -0.00729501f,
  0.28481621f, -0.05359811f, -0.00627155f, 0.05313675f, -0.04493200f, 0.06988831f,
  -0.05700752f, -0.15516078f, -0.01598207f, 0.06527197f, 0.09745363f, 0.06970368f,
  0.06042319f, -0.00654748f, -0.05264015f, -0.07846314f, 0.00787681f, -0.12152053f,
  0.16556972f, -0.28074113f, -0.30004510f, 0.04979162f, 0.12696111f, 0.05040725f,
  -0.02299130f, -0.08121394f, 0.03416902f, 0.00679043f, 0.05311684f, -0.00190143f,
  0.05450583f, 0.04686297f, -0.04705050f, -0.01275107f, 0.00742056f, -0.04658748f,
  0.09573295f, -0.02794052f, -0.02693767f, 0.04543804f, 0.08128037f, -0.24400094f,
  -0.16353619f, -0.13679016f, 0.02375233f, 0.14149520f, -0.15755309f, -0.05040083f,
  -0.05627013f, -0.10856666f, -0.16747655f, 0.00682324f, 0.06190867f, -0.13761467f,
  -0.04436102f, -0.35561204f, -0.35629869f, -0.02581115f, 0.12378060f, -0.02632144f,
  -0.04406336f, -0.02673422f, 0.04904767f, 0.04793457f, -0.05407532f, -0.09189933f,
  -0.10468275f, -0.08357964f, -0.04870385f, -0.06314077f, -0.23405033f, -0.15610889f,
  -0.00422330f, 0.06054324f, -0.00551469f, 0.07026194f, 0.05444799f, 0.30633053f,
  0.27213627f, -0.10673431f, -0.13481107f, -0.12130972f, -0.03942693f, 0.00460077f,
  -0.00310914f, -0.03012027f, -0.02380846f, -0.01780602f, 0.06619045f, -0.02935139f,
  0.24979180f, -1.11982310f, -0.24367069f, 0.12418888f, 0.07156743f, -0.34139037f,
  -0.15391657f, -0.16566047f, 0.05129412f, 0.09067368f, 0.16622446f, 0.24453561f,
  0.15116444f, -0.15337577f, 0.04176230f, -0.19793509f, -1.02804792f, 0.10188271f,
  0.02926557f, 0.24239437f, 0.20929578f, 0.10436840f, -0.06831715f, 0.00563518f,
  -0.07278278f, -0.00560508f, 0.02326345f, -0.06795393f, -0.08667443f, -0.10396044f,
  -0.03145706f, 0.05203300f, -0.00923331f, 0.03503020f, 0.00944921f, -0.04366581f,
  -0.06845284f, 0.04016268f, -0.06553500f, -0.02571627f, -0.09312781f, -0.01918009f,
  0.00568117f, -0.07803968f, -0.08911761f, 0.02000067f, -0.07047091f, 0.03954385f,
  -0.08781423f, -0.03094910f, -0.06971118f, -0.01056738f, -0.06952601f, -0.03213679f,
  0.06700142f, -0.01752917f, 0.00344188f, -0.02417098f, -0.06055902f, -0.05619147f,
  -0.04954528f, -0.07846124f, -0.00086459f, -0.07202333f, -0.08915816f, 0.01015831f,
  0.03099553f, -0.01167436f, 0.02914019f, -0.00433452f, -0.04699102f, -0.06895043f,
  -0.02927295f, 0.03025768f, -0.04142018f, 0.00875977f, -0.02927594f, 0.05353906f,
  -0.02178751f, 0.05126401f, 0.01995770f, -0.01431201f, -0.03176385f, 0.02169280f,
  0.04555441f, -0.03994747f, -0.07443206f, -0.03067310f, 0.00971954f, 0.02108779f,
  0.03932322f, -0.06886164f, -0.03445684f, -0.08036025f, -0.04930794f, -0.06079673f,
  -0.07829070f, 0.02775421f, -0.01398030f, -0.08777854f, -0.04521408f, -0.07091262f,
  -0.00954406f, -0.04994243f, 0.01746781f, 0.03280108f, -0.06947082f, -0.07573527f,
  -0.06825561f, -0.03803155f, -0.08699459f, -0.00615646f, -0.05300074f, 0.02177875f,
  -0.02492978f, -0.03608071f, -0.06988744f, -0.03210251f, -0.04327099f, -0.00831938f,
  0.05585292f, 0.05399095f, 0.02564676f, -0.08856767f, 0.01166530f, -0.04035514f,
  -0.04518336f, -0.08898260f, -0.09197339f, -0.04121137f, -0.03734673f, 0.02369752f,
  0.01559939f, 0.03029286f, -0.00295118f, 0.00215584f, -0.08008676f, 0.04029063f,
  0.01822194f, -0.04155204f, -0.07829218f, -0.02385969f, -0.07951065f, 0.05471328f,
  -0.01676976f, -0.02391226f, -0.02320042f, -0.05565793f, 0.05623842f, 0.02927174f,
  0.04553516f, -0.01553007f, -0.03336634f, -0.03295691f, -0.06166068f, 0.05351679f,
  -0.03133750f, -0.00483771f, 0.06649545f, -0.06686876f, 0.00165052f, 0.05475806f,
  0.00084797f, -0.03755327f, 0.02918203f, -0.02009096f, -0.09679922f, -0.01511031f,
  0.02437267f, 0.00544068f, -0.03242210f, -0.01623258f, 0.02330248f, -0.02059111f,
  -0.07831036f, 0.02624989f, 0.01020802f, -0.05083144f, 0.01182514f, -0.06778646f,
  -0.06738425f, -0.07165886f, -0.05282251f, 0.04369406f, -0.07022848f, -0.08083607f,
  0.01860924f, -0.09019262f, -0.12006444f, -0.05467796f, -0.04531293f, -0.06663740f,
  -0.08378319f, -0.00612137f, -0.04314476f, -0.04962663f, -0.04809154f, -0.03657151f,
  -0.00177665f, -0.08972229f, 0.03372800f, -0.10163321f, -0.02269197f, 0.05362592f,
  -0.02278566f, 0.01418792f, 0.04206866f, -0.03041829f, -0.07334006f, -0.12429991f,
  -0.00901848f, -0.08518122f, -0.08730815f, 0.03489155f, -0.05865776f, 0.00281723f,
  -0.08970362f, -0.04808333f, -0.07210509f, -0.08329502f, 0.00486585f, -0.10099979f,
  -0.08845318f, -0.06123046f, -0.00981648f, 0.02678499f, 0.00859592f, -0.02949553f,
  0.03775766f, -0.04959871f, 0.02227205f, -0.06328834f, 0.03824282f, -0.09848884f,
  -0.00657262f, -0.09720903f, 0.04443190f, 0.04564971f, -0.00867445f, -0.09961320f,
  -0.02798373f, -0.10639651f, -0.04605654f, 0.03855087f, -0.00111890f, 0.01604898f,
  -0.04915256f, -0.01818421f, -0.01789806f, -0.01116167f, -0.10761030f, 0.02644881f,
  -0.02866389f, 0.04079418f, -0.02007638f, 0.03919046f, 0.03380204f, 0.03034134f,
  0.02452052f, -0.02000158f, 0.03255733f, 0.01942288f, -0.09969968f, -0.11119992f,
  -0.05130240f, 0.03557042f, -0.07164590f, 0.02461909f, -0.08191872f, -0.06828722f,
  -0.01576951f, -0.07453433f, -0.10204496f, -0.03674870f, -0.09299859f, -0.03533890f,
  0.01298186f, 0.03335512f, -0.01921724f, 0.03690933f, -0.04920175f, -0.01797061f,
  -0.05559747f, 0.03571405f, -0.01194948f, -0.10044648f, 0.00461870f, -0.04936023f,
  -0.04464317f, -0.08235400f, 0.04983063f, -0.10051189f, -0.08667114f, -0.01929154f,
  0.00518247f, 0.00005636f, -0.09043695f, -0.06383069f, 0.01477021f, 0.05553455f,
  0.00984161f, -0.02070944f, -0.03469846f, -0.07820356f, -0.11818964f, -0.04738662f,
  -0.02125311f, -0.10119875f, 0.01376996f, -0.05630486f, 0.01803224f, -0.06818277f,
  0.01946865f, 0.05357209f, 0.03878867f, -0.03133623f, -0.10173808f, -0.06085801f,
  -0.05519550f, -0.05081602f, -0.06116479f, 0.00795745f, -0.08341010f, -0.09313833f,
  0.01403247f, -0.09031343f, -0.08711604f, -0.04207819f, 0.02805333f, 0.01361171f,
  0.01790336f, 0.00765637f, -0.01690833f, -0.01239601f, 0.01023444f, -0.05337875f,
  -0.09632538f, -0.08288667f, 0.02208461f, 0.00339919f, -0.01777755f, -0.01263726f,
  -0.09032273f, -0.07174026f, -0.00119380f, -0.08303940f, -0.01208778f, 0.00705182f,
  -0.09205849f, -0.09276814f, -0.06547217f, -0.01180741f, -0.00420087f, -0.04856104f,
  0.03162094f, -0.02629667f, -0.09305268f, 0.04338748f, 0.00541735f, -0.00876719f,
  0.03431503f, -0.06927584f, 0.03982333f, 0.05123251f, -0.03777958f, -0.00500738f,
  -0.02722600f, -0.08528707f, -0.02162648f, -0.04674875f, 0.02135894f, -0.04693085f,
  0.02166784f, -0.09980606f, 0.03187002f, -0.00634040f, -0.04722877f, -0.01695336f,
  -0.05556661f, -0.03740713f, 0.01686193f, -0.03823788f, 0.01459048f, -0.06257148f,
  -0.09952390f, -0.07703221f, -0.08499315f, -0.04859613f, 0.00506201f, -0.09078221f,
  -0.05966185f, -0.00754446f, 0.01004437f, -0.06296262f, -0.09222388f, 0.04882399f,
  -0.01307380f, 0.03313075f, 0.01807880f, 0.04405434f, -0.06118397f, -0.00326280f,
  0.01005499f, -0.00941738f, 0.01671684f, -0.07329331f, -0.04022579f, -0.09494266f,
  -0.04929203f, 0.02992463f, -0.07757743f, -0.05212514f, -0.06602293f, 0.00405912f,
  0.02077680f, 0.02705456f, 0.05071568f, -0.10564557f, 0.00816467f, -0.07571674f,
  -0.04111849f, -0.08564844f, 0.03206971f, -0.04133971f, -0.06996914f, -0.08687537f,
  0.00624323f, -0.04445392f, -0.01658383f, -0.01982550f, -0.06303564f, 0.01397395f,
